{"learner": {"attributes": {"best_iteration": "499", "best_ntree_limit": "500"}, "feature_names": [], "feature_types": [], "gradient_booster": {"model": {"gbtree_model_param": {"num_parallel_tree": "1", "num_trees": "500", "size_leaf_vector": "0"}, "tree_info": [0, 0, 0, 0, 0, 0, 0, 0, 0, 0, 0, 0, 0, 0, 0, 0, 0, 0, 0, 0, 0, 0, 0, 0, 0, 0, 0, 0, 0, 0, 0, 0, 0, 0, 0, 0, 0, 0, 0, 0, 0, 0, 0, 0, 0, 0, 0, 0, 0, 0, 0, 0, 0, 0, 0, 0, 0, 0, 0, 0, 0, 0, 0, 0, 0, 0, 0, 0, 0, 0, 0, 0, 0, 0, 0, 0, 0, 0, 0, 0, 0, 0, 0, 0, 0, 0, 0, 0, 0, 0, 0, 0, 0, 0, 0, 0, 0, 0, 0, 0, 0, 0, 0, 0, 0, 0, 0, 0, 0, 0, 0, 0, 0, 0, 0, 0, 0, 0, 0, 0, 0, 0, 0, 0, 0, 0, 0, 0, 0, 0, 0, 0, 0, 0, 0, 0, 0, 0, 0, 0, 0, 0, 0, 0, 0, 0, 0, 0, 0, 0, 0, 0, 0, 0, 0, 0, 0, 0, 0, 0, 0, 0, 0, 0, 0, 0, 0, 0, 0, 0, 0, 0, 0, 0, 0, 0, 0, 0, 0, 0, 0, 0, 0, 0, 0, 0, 0, 0, 0, 0, 0, 0, 0, 0, 0, 0, 0, 0, 0, 0, 0, 0, 0, 0, 0, 0, 0, 0, 0, 0, 0, 0, 0, 0, 0, 0, 0, 0, 0, 0, 0, 0, 0, 0, 0, 0, 0, 0, 0, 0, 0, 0, 0, 0, 0, 0, 0, 0, 0, 0, 0, 0, 0, 0, 0, 0, 0, 0, 0, 0, 0, 0, 0, 0, 0, 0, 0, 0, 0, 0, 0, 0, 0, 0, 0, 0, 0, 0, 0, 0, 0, 0, 0, 0, 0, 0, 0, 0, 0, 0, 0, 0, 0, 0, 0, 0, 0, 0, 0, 0, 0, 0, 0, 0, 0, 0, 0, 0, 0, 0, 0, 0, 0, 0, 0, 0, 0, 0, 0, 0, 0, 0, 0, 0, 0, 0, 0, 0, 0, 0, 0, 0, 0, 0, 0, 0, 0, 0, 0, 0, 0, 0, 0, 0, 0, 0, 0, 0, 0, 0, 0, 0, 0, 0, 0, 0, 0, 0, 0, 0, 0, 0, 0, 0, 0, 0, 0, 0, 0, 0, 0, 0, 0, 0, 0, 0, 0, 0, 0, 0, 0, 0, 0, 0, 0, 0, 0, 0, 0, 0, 0, 0, 0, 0, 0, 0, 0, 0, 0, 0, 0, 0, 0, 0, 0, 0, 0, 0, 0, 0, 0, 0, 0, 0, 0, 0, 0, 0, 0, 0, 0, 0, 0, 0, 0, 0, 0, 0, 0, 0, 0, 0, 0, 0, 0, 0, 0, 0, 0, 0, 0, 0, 0, 0, 0, 0, 0, 0, 0, 0, 0, 0, 0, 0, 0, 0, 0, 0, 0, 0, 0, 0, 0, 0, 0, 0, 0, 0, 0, 0, 0, 0, 0, 0, 0, 0, 0, 0, 0, 0, 0, 0, 0, 0, 0, 0, 0, 0, 0, 0, 0, 0, 0, 0, 0, 0, 0, 0, 0, 0, 0, 0, 0, 0, 0, 0, 0, 0, 0, 0], "trees": [{"base_weights": [-3.876556354300748e-17, -0.036973001717085695, 0.33582865038889703, -0.05555235745999732, 0.5033894610622809, 0.24749138656652597, 0.4565057436448741, -0.08941087295189348, 0.0026616057637993923, 0.19207201468639923, 0.6156358267782082, 0.22874167861805447, 0.6750709333455364, 0.38392826938340363, 0.4932994930219514, -0.09282456199867621, 0.24880165592394618, -0.05558921284384808, 0.08019650499319296, 0.09889870200089183, 0.37176340343702236, 0.6620721971115548, 0.49631726085443034, 0.2787484507799543, 0.09998550308769312, 0.7112357777526012, 0.08196748506967486, 0.4694674850696766, 0.3078934109956012, 0.4821784555338014, 0.6750709333455371, -0.9190768417828871, 1.1746068732824204, 0.0058746198804116795, 3.394747394080778, -0.5756420192284301, 6.310875905167743, 1.105808445827737, -0.9023570710163301, -1.1338286466660397, 1.2531342985944507, 4.2306002721249545, 1.1533309698727572, 6.851940713248937, 5.981779049232437, 5.526380156694935, 3.208641529392553, 1.9979309787388082, 3.2259428701698614, 0.3357567487368738, 1.5438216361110886, 7.254570848357936, 4.1058461112228395, -1.1338286466660397, 8.472241742796905, 4.629813587011726, -1.1338286466660397, 1.708784019603608, 3.6692065480654334, 5.099443694941026, 4.2093068912480875, 7.245934884567586, 3.2325669849080274], "categories": [], "categories_nodes": [], "categories_segments": [], "categories_sizes": [], "default_left": [1, 1, 1, 1, 1, 1, 1, 1, 1, 1, 1, 1, 1, 1, 1, 1, 1, 1, 1, 1, 1, 1, 1, 1, 1, 1, 1, 1, 1, 1, 1, 0, 0, 0, 0, 0, 0, 0, 0, 0, 0, 0, 0, 0, 0, 0, 0, 0, 0, 0, 0, 0, 0, 0, 0, 0, 0, 0, 0, 0, 0, 0, 0], "id": 0, "left_children": [1, 3, 5, 7, 9, 11, 13, 15, 17, 19, 21, 23, 25, 27, 29, 31, 33, 35, 37, 39, 41, 43, 45, 47, 49, 51, 53, 55, 57, 59, 61, -1, -1, -1, -1, -1, -1, -1, -1, -1, -1, -1, -1, -1, -1, -1, -1, -1, -1, -1, -1, -1, -1, -1, -1, -1, -1, -1, -1, -1, -1, -1, -1], "loss_changes": [0.0, 0.0, 0.0, 0.0, 0.0, 0.0, 0.0, 0.0, 0.0, 0.0, 0.0, 0.0, 0.0, 0.0, 0.0, 0.0, 0.0, 0.0, 0.0, 0.0, 0.0, 0.0, 0.0, 0.0, 0.0, 0.0, 0.0, 0.0, 0.0, 0.0, 0.0, 0.0, 0.0, 0.0, 0.0, 0.0, 0.0, 0.0, 0.0, 0.0, 0.0, 0.0, 0.0, 0.0, 0.0, 0.0, 0.0, 0.0, 0.0, 0.0, 0.0, 0.0, 0.0, 0.0, 0.0, 0.0, 0.0, 0.0, 0.0, 0.0, 0.0, 0.0, 0.0], "parents": [2147483647, 0, 0, 1, 1, 2, 2, 3, 3, 4, 4, 5, 5, 6, 6, 7, 7, 8, 8, 9, 9, 10, 10, 11, 11, 12, 12, 13, 13, 14, 14, 15, 15, 16, 16, 17, 17, 18, 18, 19, 19, 20, 20, 21, 21, 22, 22, 23, 23, 24, 24, 25, 25, 26, 26, 27, 27, 28, 28, 29, 29, 30, 30], "right_children": [2, 4, 6, 8, 10, 12, 14, 16, 18, 20, 22, 24, 26, 28, 30, 32, 34, 36, 38, 40, 42, 44, 46, 48, 50, 52, 54, 56, 58, 60, 62, -1, -1, -1, -1, -1, -1, -1, -1, -1, -1, -1, -1, -1, -1, -1, -1, -1, -1, -1, -1, -1, -1, -1, -1, -1, -1, -1, -1, -1, -1, -1, -1], "split_conditions": [549.5, 0.5, 800.5, 206.5, 162.5, 0.5, 0.5, 0.5, 0.5, 129.5, 0.5, 0.5, 0.5, 0.5, 0.5, 0.5, 94.5, 374.5, 0.5, 62.5, 155.5, 662.0, 209.0, 633.5, 647.5, 0.5, 0.5, 11537.5, 13.5, 15.5, 57.5, -0.09593007428541117, 0.11343829722111959, -0.0034349281190813, 0.33545234930095535, -0.06158659202996547, 0.6270652004096519, 0.10655845447565125, -0.09425809720875548, -0.11740525477372643, 0.12129103975232261, 0.419037637105373, 0.11131070688015327, 0.6811716812177713, 0.5941555148161213, 0.5486156255623711, 0.31684176283213283, 0.19577070776675837, 0.3185718969098637, 0.02955328476656491, 0.1503597735039864, 0.7214346947286712, 0.4065622210151615, -0.11740525477372643, 0.8432017841725681, 0.45895896859405017, -0.11740525477372643, 0.16685601185323834, 0.3628982646994209, 0.5059219793869801, 0.41690829901768633, 0.7205710983496362, 0.3192343083836803], "split_indices": [3, 49, 3, 3, 3, 49, 32, 42, 28, 3, 29, 34, 25, 43, 49, 45, 3, 5, 34, 3, 3, 1, 5, 3, 3, 8, 11, 1, 2, 2, 0, 0, 0, 0, 0, 0, 0, 0, 0, 0, 0, 0, 0, 0, 0, 0, 0, 0, 0, 0, 0, 0, 0, 0, 0, 0, 0, 0, 0, 0, 0, 0, 0], "split_type": [0, 0, 0, 0, 0, 0, 0, 0, 0, 0, 0, 0, 0, 0, 0, 0, 0, 0, 0, 0, 0, 0, 0, 0, 0, 0, 0, 0, 0, 0, 0, 0, 0, 0, 0, 0, 0, 0, 0, 0, 0, 0, 0, 0, 0, 0, 0, 0, 0, 0, 0, 0, 0, 0, 0, 0, 0, 0, 0, 0, 0, 0, 0], "sum_hessian": [0.0, 0.0, 0.0, 0.0, 0.0, 0.0, 0.0, 0.0, 0.0, 0.0, 0.0, 0.0, 0.0, 0.0, 0.0, 0.0, 0.0, 0.0, 0.0, 0.0, 0.0, 0.0, 0.0, 0.0, 0.0, 0.0, 0.0, 0.0, 0.0, 0.0, 0.0, 0.0, 0.0, 0.0, 0.0, 0.0, 0.0, 0.0, 0.0, 0.0, 0.0, 0.0, 0.0, 0.0, 0.0, 0.0, 0.0, 0.0, 0.0, 0.0, 0.0, 0.0, 0.0, 0.0, 0.0, 0.0, 0.0, 0.0, 0.0, 0.0, 0.0, 0.0, 0.0], "tree_param": {"num_deleted": "0", "num_feature": "51", "num_nodes": "63", "size_leaf_vector": "0"}}, {"base_weights": [-0.0012118670295576562, -0.04157812506429739, 0.24407376705079803, -0.05724064975225958, 0.42773545117920686, 0.15952199632067174, 0.36909721465320666, -0.0631901514596799, 0.20691003632715507, 0.09204790143330077, 0.5082340725027021, 0.13680959796131087, 0.5954195489393341, 0.2887332646075783, 0.41729064629422336, -0.06684596722818725, 0.32965490756151283, -0.04264607361968362, 0.29313877350390827, 0.20177980147637714, 0.031475892609522715, 0.33379922060457956, 0.530891113321871, 0.18080283598854371, 0.02203271917295016, 0.6055815959432792, -0.1616529528545954, 0.33645782308918804, 0.16800538607419496, 0.4667104625078237, 0.3781122106311284, -0.7082626678591578, 2.0766101316566448, 1.174499482758319, 4.734136952498738, -0.6482795297828854, 0.8613121276171349, 2.1969336783838798, 3.872442850009817, 1.204726843897906, 5.302347524082907, 7.5921636886079975, 0.15974956258827855, 2.8381333453871607, 0.9470668692646641, 2.8377000770231753, 3.569400071864553, 1.5149998730936776, 6.088832851172037, 0.8966845634634188, -0.17102044973947614, 4.087401067504361, 3.1236995686223277, -1.276446499466506, -1.1194833893857892, 2.1311595326138413, 3.1175242422878835, 2.686205035301251, 0.5112242190609174, 3.359818392139194, 1.9054241505337863, 2.5897168775085193, 4.28642744103725], "categories": [], "categories_nodes": [], "categories_segments": [], "categories_sizes": [], "default_left": [1, 1, 1, 1, 1, 1, 1, 1, 1, 1, 1, 1, 1, 1, 1, 1, 1, 1, 1, 1, 1, 1, 1, 1, 1, 1, 1, 1, 1, 1, 1, 0, 0, 0, 0, 0, 0, 0, 0, 0, 0, 0, 0, 0, 0, 0, 0, 0, 0, 0, 0, 0, 0, 0, 0, 0, 0, 0, 0, 0, 0, 0, 0], "id": 1, "left_children": [1, 3, 5, 7, 9, 11, 13, 15, 17, 19, 21, 23, 25, 27, 29, 31, 33, 35, 37, 39, 41, 43, 45, 47, 49, 51, 53, 55, 57, 59, 61, -1, -1, -1, -1, -1, -1, -1, -1, -1, -1, -1, -1, -1, -1, -1, -1, -1, -1, -1, -1, -1, -1, -1, -1, -1, -1, -1, -1, -1, -1, -1, -1], "loss_changes": [0.0, 0.0, 0.0, 0.0, 0.0, 0.0, 0.0, 0.0, 0.0, 0.0, 0.0, 0.0, 0.0, 0.0, 0.0, 0.0, 0.0, 0.0, 0.0, 0.0, 0.0, 0.0, 0.0, 0.0, 0.0, 0.0, 0.0, 0.0, 0.0, 0.0, 0.0, 0.0, 0.0, 0.0, 0.0, 0.0, 0.0, 0.0, 0.0, 0.0, 0.0, 0.0, 0.0, 0.0, 0.0, 0.0, 0.0, 0.0, 0.0, 0.0, 0.0, 0.0, 0.0, 0.0, 0.0, 0.0, 0.0, 0.0, 0.0, 0.0, 0.0, 0.0, 0.0], "parents": [2147483647, 0, 0, 1, 1, 2, 2, 3, 3, 4, 4, 5, 5, 6, 6, 7, 7, 8, 8, 9, 9, 10, 10, 11, 11, 12, 12, 13, 13, 14, 14, 15, 15, 16, 16, 17, 17, 18, 18, 19, 19, 20, 20, 21, 21, 22, 22, 23, 23, 24, 24, 25, 25, 26, 26, 27, 27, 28, 28, 29, 29, 30, 30], "right_children": [2, 4, 6, 8, 10, 12, 14, 16, 18, 20, 22, 24, 26, 28, 30, 32, 34, 36, 38, 40, 42, 44, 46, 48, 50, 52, 54, 56, 58, 60, 62, -1, -1, -1, -1, -1, -1, -1, -1, -1, -1, -1, -1, -1, -1, -1, -1, -1, -1, -1, -1, -1, -1, -1, -1, -1, -1, -1, -1, -1, -1, -1, -1], "split_conditions": [452.5, 0.5, 706.5, 60.5, 132.5, 0.5, 853.5, 0.5, 126.0, 98.5, 162.5, 0.5, 13362.5, 0.5, 0.5, 0.5, 173.5, 0.5, 298.5, 97.5, 23.5, 155.5, 0.5, 370.5, 0.5, 185.5, 0.5, 1215.5, 0.5, 0.5, 0.5, -0.07484865689303825, 0.20363862305854202, 0.11342755816870945, 0.46939130514275135, -0.068850343085411, 0.08210882265459103, 0.21567097773126553, 0.38322189489385927, 0.11645029428266813, 0.5262123623011683, 0.7551939787536773, 0.011952566151705389, 0.27979094443159364, 0.09068429681934395, 0.27974761759519506, 0.35291761707933283, 0.1474775972022453, 0.6048608950100812, 0.08564606623921943, -0.02112443508107008, 0.4047177166433137, 0.3083475667551103, -0.13166704005377305, -0.11597072904570138, 0.20909356315426167, 0.3077300341216659, 0.26459811342300266, 0.04710003179896928, 0.331959449106797, 0.1865200249462562, 0.2549492976437295, 0.4246203539966026], "split_indices": [3, 49, 3, 0, 3, 49, 3, 42, 3, 5, 3, 34, 1, 34, 20, 45, 3, 38, 3, 5, 0, 3, 28, 5, 43, 5, 28, 1, 20, 44, 49, 0, 0, 0, 0, 0, 0, 0, 0, 0, 0, 0, 0, 0, 0, 0, 0, 0, 0, 0, 0, 0, 0, 0, 0, 0, 0, 0, 0, 0, 0, 0, 0], "split_type": [0, 0, 0, 0, 0, 0, 0, 0, 0, 0, 0, 0, 0, 0, 0, 0, 0, 0, 0, 0, 0, 0, 0, 0, 0, 0, 0, 0, 0, 0, 0, 0, 0, 0, 0, 0, 0, 0, 0, 0, 0, 0, 0, 0, 0, 0, 0, 0, 0, 0, 0, 0, 0, 0, 0, 0, 0, 0, 0, 0, 0, 0, 0], "sum_hessian": [0.0, 0.0, 0.0, 0.0, 0.0, 0.0, 0.0, 0.0, 0.0, 0.0, 0.0, 0.0, 0.0, 0.0, 0.0, 0.0, 0.0, 0.0, 0.0, 0.0, 0.0, 0.0, 0.0, 0.0, 0.0, 0.0, 0.0, 0.0, 0.0, 0.0, 0.0, 0.0, 0.0, 0.0, 0.0, 0.0, 0.0, 0.0, 0.0, 0.0, 0.0, 0.0, 0.0, 0.0, 0.0, 0.0, 0.0, 0.0, 0.0, 0.0, 0.0, 0.0, 0.0, 0.0, 0.0, 0.0, 0.0, 0.0, 0.0, 0.0, 0.0, 0.0, 0.0], "tree_param": {"num_deleted": "0", "num_feature": "51", "num_nodes": "63", "size_leaf_vector": "0"}}, {"base_weights": [-0.0017616566478278577, -0.033016664685978775, 0.25208576424809226, -0.04746607299021771, 0.3898593928196485, 0.19039204487034236, 0.3652423646221386, -0.05308782056149782, 0.19663485792920962, 0.08178285916528162, 0.45855691871498977, 0.1744149656143008, 0.5340393986932604, 0.4095831015111255, 0.33096118654573203, -0.05630076975741387, 0.29675247076845357, -0.03856199943514234, 0.27193328684058443, 0.11638840001230767, -0.10017530722391946, 0.3795246673944346, 0.4997310636337392, 0.21324122822153885, 0.07526732110132282, 0.5570485168597403, 0.03244062266400288, 0.4202616446309261, 0.17900567044284837, 0.2833829086477751, 0.3879490960056777, -0.7543854475888744, 0.1848173431642362, 0.9698084696288795, 3.085048570453038, -1.1221486957251108, -0.016464270569286874, 1.754207125056781, 3.119049181581762, 1.7169712515016844, 0.4938445657825325, -1.1511879371547071, 1.3511671462361083, 2.2787021353991244, 0.8011090238558677, 2.7669455152394478, 1.851208968609623, 1.1980747831828065, 1.803463414946931, 0.22217902859380248, 1.0479546886775981, 2.3108535390159655, 3.1436532015146006, -1.153229616111364, 3.128102574310113, 2.380075174162724, 3.9093625246737194, 2.7051372822936512, 0.03297981569721528, 1.475519008992076, 2.640756516353765, 3.822465702198652, 2.1875041791717744], "categories": [], "categories_nodes": [], "categories_segments": [], "categories_sizes": [], "default_left": [1, 1, 1, 1, 1, 1, 1, 1, 1, 1, 1, 1, 1, 1, 1, 1, 1, 1, 1, 1, 1, 1, 1, 1, 1, 1, 1, 1, 1, 1, 1, 0, 0, 0, 0, 0, 0, 0, 0, 0, 0, 0, 0, 0, 0, 0, 0, 0, 0, 0, 0, 0, 0, 0, 0, 0, 0, 0, 0, 0, 0, 0, 0], "id": 2, "left_children": [1, 3, 5, 7, 9, 11, 13, 15, 17, 19, 21, 23, 25, 27, 29, 31, 33, 35, 37, 39, 41, 43, 45, 47, 49, 51, 53, 55, 57, 59, 61, -1, -1, -1, -1, -1, -1, -1, -1, -1, -1, -1, -1, -1, -1, -1, -1, -1, -1, -1, -1, -1, -1, -1, -1, -1, -1, -1, -1, -1, -1, -1, -1], "loss_changes": [0.0, 0.0, 0.0, 0.0, 0.0, 0.0, 0.0, 0.0, 0.0, 0.0, 0.0, 0.0, 0.0, 0.0, 0.0, 0.0, 0.0, 0.0, 0.0, 0.0, 0.0, 0.0, 0.0, 0.0, 0.0, 0.0, 0.0, 0.0, 0.0, 0.0, 0.0, 0.0, 0.0, 0.0, 0.0, 0.0, 0.0, 0.0, 0.0, 0.0, 0.0, 0.0, 0.0, 0.0, 0.0, 0.0, 0.0, 0.0, 0.0, 0.0, 0.0, 0.0, 0.0, 0.0, 0.0, 0.0, 0.0, 0.0, 0.0, 0.0, 0.0, 0.0, 0.0], "parents": [2147483647, 0, 0, 1, 1, 2, 2, 3, 3, 4, 4, 5, 5, 6, 6, 7, 7, 8, 8, 9, 9, 10, 10, 11, 11, 12, 12, 13, 13, 14, 14, 15, 15, 16, 16, 17, 17, 18, 18, 19, 19, 20, 20, 21, 21, 22, 22, 23, 23, 24, 24, 25, 25, 26, 26, 27, 27, 28, 28, 29, 29, 30, 30], "right_children": [2, 4, 6, 8, 10, 12, 14, 16, 18, 20, 22, 24, 26, 28, 30, 32, 34, 36, 38, 40, 42, 44, 46, 48, 50, 52, 54, 56, 58, 60, 62, -1, -1, -1, -1, -1, -1, -1, -1, -1, -1, -1, -1, -1, -1, -1, -1, -1, -1, -1, -1, -1, -1, -1, -1, -1, -1, -1, -1, -1, -1, -1, -1], "split_conditions": [521.5, 0.5, 827.5, 60.5, 132.5, 0.5, 0.5, 0.5, 126.0, 0.5, 214.5, 0.5, 0.5, 0.5, 754.0, 313.5, 173.5, 9.5, 359.5, 98.5, 5200.0, 202.5, 0.5, 633.5, 647.5, 0.5, 0.5, 4.5, 222.5, 0.5, 851.0, -0.07946093486600991, 0.014459344209301152, 0.09295845685576548, 0.3044824669381814, -0.11623725967963355, -0.005668817164051155, 0.17139832239855565, 0.30788252805105376, 0.16767473504304597, 0.04536206647113078, -0.11914118382259319, 0.13109432451648836, 0.22384782343278997, 0.0760885122784643, 0.2726721614168223, 0.18109850675383984, 0.11578508821115818, 0.17632395138757065, 0.01819551275225778, 0.10077307876063735, 0.2270629637944741, 0.3103429300443376, -0.11934535171825887, 0.30878786732388885, 0.23398512730914994, 0.3869138623602495, 0.2664913381222427, -0.0007244085374009395, 0.14352951079208515, 0.2600532615282541, 0.3782241801127427, 0.21472802781005498], "split_indices": [3, 49, 3, 0, 3, 49, 20, 42, 3, 43, 3, 34, 25, 48, 1, 3, 3, 2, 3, 5, 1, 5, 43, 3, 3, 28, 11, 6, 5, 40, 1, 0, 0, 0, 0, 0, 0, 0, 0, 0, 0, 0, 0, 0, 0, 0, 0, 0, 0, 0, 0, 0, 0, 0, 0, 0, 0, 0, 0, 0, 0, 0, 0], "split_type": [0, 0, 0, 0, 0, 0, 0, 0, 0, 0, 0, 0, 0, 0, 0, 0, 0, 0, 0, 0, 0, 0, 0, 0, 0, 0, 0, 0, 0, 0, 0, 0, 0, 0, 0, 0, 0, 0, 0, 0, 0, 0, 0, 0, 0, 0, 0, 0, 0, 0, 0, 0, 0, 0, 0, 0, 0, 0, 0, 0, 0, 0, 0], "sum_hessian": [0.0, 0.0, 0.0, 0.0, 0.0, 0.0, 0.0, 0.0, 0.0, 0.0, 0.0, 0.0, 0.0, 0.0, 0.0, 0.0, 0.0, 0.0, 0.0, 0.0, 0.0, 0.0, 0.0, 0.0, 0.0, 0.0, 0.0, 0.0, 0.0, 0.0, 0.0, 0.0, 0.0, 0.0, 0.0, 0.0, 0.0, 0.0, 0.0, 0.0, 0.0, 0.0, 0.0, 0.0, 0.0, 0.0, 0.0, 0.0, 0.0, 0.0, 0.0, 0.0, 0.0, 0.0, 0.0, 0.0, 0.0, 0.0, 0.0, 0.0, 0.0, 0.0, 0.0], "tree_param": {"num_deleted": "0", "num_feature": "51", "num_nodes": "63", "size_leaf_vector": "0"}}, {"base_weights": [-0.0020102089449645193, -0.03554987972752035, 0.18967529904408603, -0.04801362170157232, 0.33834982789086304, 0.10770813351783645, 0.2751238155520955, -0.05128505413093471, 0.26511981807166424, 0.07305980686054822, 0.4027631746741936, 0.08846445852160723, 0.4862153048722366, 0.2226212046312839, 0.3354568892263771, -0.05488310173295416, 0.20383407230421388, 0.13114018229319058, 0.4197117055083659, 0.0499814243022249, 0.29871510298637677, 0.009040102667106698, 0.4128715975755319, 0.12811888040800054, -0.013985184872550077, 0.5027236393119735, 0.06360194321497341, 0.1299823911149726, 0.2684985385783907, 0.285913030657743, 0.3606858651764565, -0.6425699085755459, 2.2966781824248588, -0.2779271095213644, 2.5508750471646993, -0.9214603238721577, 1.3267548462555478, 2.9276483180941804, 1.2049262037397228, 1.042166433257357, -0.06982558513728768, -1.1498287266264178, 3.9385986344283257, -1.0680560176469875, 2.650336782011556, 2.4940577790055536, 1.8257418898983206, 0.912759672434246, 3.733321848814978, -0.15793673133755717, 8.220154246000693, 2.5106827113666164, 1.8094697900873662, 2.9451674538832964, -1.5025583214393385, 1.4385197160571361, 0.5649854409425417, 1.9209605893401647, 1.1521629628082426, 1.8598039562014244, 1.2435308109758951, 1.9484867354342046, 1.1482788784512816], "categories": [], "categories_nodes": [], "categories_segments": [], "categories_sizes": [], "default_left": [1, 1, 1, 1, 1, 1, 1, 1, 1, 1, 1, 1, 1, 1, 1, 1, 1, 1, 1, 1, 1, 1, 1, 1, 1, 1, 1, 1, 1, 1, 1, 0, 0, 0, 0, 0, 0, 0, 0, 0, 0, 0, 0, 0, 0, 0, 0, 0, 0, 0, 0, 0, 0, 0, 0, 0, 0, 0, 0, 0, 0, 0, 0], "id": 3, "left_children": [1, 3, 5, 7, 9, 11, 13, 15, 17, 19, 21, 23, 25, 27, 29, 31, 33, 35, 37, 39, 41, 43, 45, 47, 49, 51, 53, 55, 57, 59, 61, -1, -1, -1, -1, -1, -1, -1, -1, -1, -1, -1, -1, -1, -1, -1, -1, -1, -1, -1, -1, -1, -1, -1, -1, -1, -1, -1, -1, -1, -1, -1, -1], "loss_changes": [0.0, 0.0, 0.0, 0.0, 0.0, 0.0, 0.0, 0.0, 0.0, 0.0, 0.0, 0.0, 0.0, 0.0, 0.0, 0.0, 0.0, 0.0, 0.0, 0.0, 0.0, 0.0, 0.0, 0.0, 0.0, 0.0, 0.0, 0.0, 0.0, 0.0, 0.0, 0.0, 0.0, 0.0, 0.0, 0.0, 0.0, 0.0, 0.0, 0.0, 0.0, 0.0, 0.0, 0.0, 0.0, 0.0, 0.0, 0.0, 0.0, 0.0, 0.0, 0.0, 0.0, 0.0, 0.0, 0.0, 0.0, 0.0, 0.0, 0.0, 0.0, 0.0, 0.0], "parents": [2147483647, 0, 0, 1, 1, 2, 2, 3, 3, 4, 4, 5, 5, 6, 6, 7, 7, 8, 8, 9, 9, 10, 10, 11, 11, 12, 12, 13, 13, 14, 14, 15, 15, 16, 16, 17, 17, 18, 18, 19, 19, 20, 20, 21, 21, 22, 22, 23, 23, 24, 24, 25, 25, 26, 26, 27, 27, 28, 28, 29, 29, 30, 30], "right_children": [2, 4, 6, 8, 10, 12, 14, 16, 18, 20, 22, 24, 26, 28, 30, 32, 34, 36, 38, 40, 42, 44, 46, 48, 50, 52, 54, 56, 58, 60, 62, -1, -1, -1, -1, -1, -1, -1, -1, -1, -1, -1, -1, -1, -1, -1, -1, -1, -1, -1, -1, -1, -1, -1, -1, -1, -1, -1, -1, -1, -1, -1, -1], "split_conditions": [438.5, 0.5, 636.5, 0.5, 132.5, 0.5, 869.5, 0.5, 173.5, 0.5, 44.5, 0.5, 0.5, 0.5, 0.5, 0.5, 129.5, 79.0, 88.0, 98.5, 82.0, 0.5, 93.5, 0.5, 0.5, 0.5, 23.5, 0.5, 16.5, 0.5, 55.5, -0.06827938096467705, 0.22564542813536342, -0.03181510105925891, 0.2510651146093475, -0.09616842249433824, 0.12865309451843232, 0.28874244170229557, 0.11647023026684983, 0.10019425321861325, -0.011004948620851236, -0.11900526276976425, 0.3898374733357101, -0.11082799187182123, 0.2610112880940332, 0.2453833877934329, 0.1785517988827096, 0.08725357713630215, 0.36930979477437537, -0.019816063240878187, 0.8179930344929468, 0.24704588102953917, 0.17692458890161417, 0.2904943552812072, -0.15427822225105634, 0.13982958149859115, 0.05247615398713171, 0.18807366882689402, 0.1111939061737018, 0.18195800551302, 0.12033069099046706, 0.190826283436298, 0.1108054977380057], "split_indices": [3, 49, 3, 42, 3, 49, 3, 45, 3, 46, 5, 34, 15, 32, 32, 46, 3, 3, 5, 5, 3, 36, 5, 41, 36, 43, 0, 20, 2, 43, 0, 0, 0, 0, 0, 0, 0, 0, 0, 0, 0, 0, 0, 0, 0, 0, 0, 0, 0, 0, 0, 0, 0, 0, 0, 0, 0, 0, 0, 0, 0, 0, 0], "split_type": [0, 0, 0, 0, 0, 0, 0, 0, 0, 0, 0, 0, 0, 0, 0, 0, 0, 0, 0, 0, 0, 0, 0, 0, 0, 0, 0, 0, 0, 0, 0, 0, 0, 0, 0, 0, 0, 0, 0, 0, 0, 0, 0, 0, 0, 0, 0, 0, 0, 0, 0, 0, 0, 0, 0, 0, 0, 0, 0, 0, 0, 0, 0], "sum_hessian": [0.0, 0.0, 0.0, 0.0, 0.0, 0.0, 0.0, 0.0, 0.0, 0.0, 0.0, 0.0, 0.0, 0.0, 0.0, 0.0, 0.0, 0.0, 0.0, 0.0, 0.0, 0.0, 0.0, 0.0, 0.0, 0.0, 0.0, 0.0, 0.0, 0.0, 0.0, 0.0, 0.0, 0.0, 0.0, 0.0, 0.0, 0.0, 0.0, 0.0, 0.0, 0.0, 0.0, 0.0, 0.0, 0.0, 0.0, 0.0, 0.0, 0.0, 0.0, 0.0, 0.0, 0.0, 0.0, 0.0, 0.0, 0.0, 0.0, 0.0, 0.0, 0.0, 0.0], "tree_param": {"num_deleted": "0", "num_feature": "51", "num_nodes": "63", "size_leaf_vector": "0"}}, {"base_weights": [-0.0021373906982182214, -0.03495705624234093, 0.15742895079170613, -0.046107752691561664, 0.30342055669581386, 0.09078408381095987, 0.2462467791875978, -0.05048925631804239, 0.1514841513272818, 0.11591380412278166, 0.3829435097959832, 0.07492640151658876, 0.4056857511476999, 0.19622410902463436, 0.2972240804605427, -0.05304232836730585, 0.22487081336393627, -0.03254935507046587, 0.21949653412644948, 0.06058027179008596, 0.21987377395996718, 0.41266181773339317, 0.23274557508529128, 0.11385912387555484, -0.023531219170385722, 0.26421845155931845, 0.44001237531252785, 0.1198477838207265, 0.23428369195452753, 0.24378389392139738, 0.3241589161559333, -0.6578558603338087, 1.2997234220358207, 0.6792205163571001, 1.8326279435367687, -0.5875378461874445, 0.904529351785537, 1.7420839751115387, 0.4050165628230562, 0.6890786270238514, -0.8617230744532545, 0.7568837983575173, 1.9988125565570227, 0.26146282380137176, 1.8458225874626557, 1.55794881506711, -0.4433550288112014, 0.8015022524097702, 3.1728038477628457, -0.6200973189952387, 0.18936090868873076, 0.17539010104078978, 2.420627928691962, 2.4056468694374793, 1.6743510412275044, 1.211248668249895, 0.51842816174739, 1.5386133041348924, 0.9539682916313538, 0.7732685040025632, 1.4492530941363622, 1.6140820207782245, 1.0032618654737986], "categories": [], "categories_nodes": [], "categories_segments": [], "categories_sizes": [], "default_left": [1, 1, 1, 1, 1, 1, 1, 1, 1, 1, 1, 1, 1, 1, 1, 1, 1, 1, 1, 1, 1, 1, 1, 1, 1, 1, 1, 1, 1, 1, 1, 0, 0, 0, 0, 0, 0, 0, 0, 0, 0, 0, 0, 0, 0, 0, 0, 0, 0, 0, 0, 0, 0, 0, 0, 0, 0, 0, 0, 0, 0, 0, 0], "id": 4, "left_children": [1, 3, 5, 7, 9, 11, 13, 15, 17, 19, 21, 23, 25, 27, 29, 31, 33, 35, 37, 39, 41, 43, 45, 47, 49, 51, 53, 55, 57, 59, 61, -1, -1, -1, -1, -1, -1, -1, -1, -1, -1, -1, -1, -1, -1, -1, -1, -1, -1, -1, -1, -1, -1, -1, -1, -1, -1, -1, -1, -1, -1, -1, -1], "loss_changes": [0.0, 0.0, 0.0, 0.0, 0.0, 0.0, 0.0, 0.0, 0.0, 0.0, 0.0, 0.0, 0.0, 0.0, 0.0, 0.0, 0.0, 0.0, 0.0, 0.0, 0.0, 0.0, 0.0, 0.0, 0.0, 0.0, 0.0, 0.0, 0.0, 0.0, 0.0, 0.0, 0.0, 0.0, 0.0, 0.0, 0.0, 0.0, 0.0, 0.0, 0.0, 0.0, 0.0, 0.0, 0.0, 0.0, 0.0, 0.0, 0.0, 0.0, 0.0, 0.0, 0.0, 0.0, 0.0, 0.0, 0.0, 0.0, 0.0, 0.0, 0.0, 0.0, 0.0], "parents": [2147483647, 0, 0, 1, 1, 2, 2, 3, 3, 4, 4, 5, 5, 6, 6, 7, 7, 8, 8, 9, 9, 10, 10, 11, 11, 12, 12, 13, 13, 14, 14, 15, 15, 16, 16, 17, 17, 18, 18, 19, 19, 20, 20, 21, 21, 22, 22, 23, 23, 24, 24, 25, 25, 26, 26, 27, 27, 28, 28, 29, 29, 30, 30], "right_children": [2, 4, 6, 8, 10, 12, 14, 16, 18, 20, 22, 24, 26, 28, 30, 32, 34, 36, 38, 40, 42, 44, 46, 48, 50, 52, 54, 56, 58, 60, 62, -1, -1, -1, -1, -1, -1, -1, -1, -1, -1, -1, -1, -1, -1, -1, -1, -1, -1, -1, -1, -1, -1, -1, -1, -1, -1, -1, -1, -1, -1, -1, -1], "split_conditions": [405.5, 0.5, 635.5, 60.5, 161.5, 0.5, 847.5, 0.5, 126.0, 127.5, 202.5, 0.5, 435.5, 0.5, 0.5, 0.5, 173.5, 0.5, 91.5, 0.5, 0.5, 47.0, 0.5, 0.5, 499.0, 159.5, 484.0, 0.5, 16.5, 987.5, 55.5, -0.06980797614050334, 0.12594995209645962, 0.06389966152858755, 0.1792404042465544, -0.06277617472586693, 0.08643054507143123, 0.17018600740403142, 0.036479266175183156, 0.06488547259526267, -0.09019469755244791, 0.07166598972862927, 0.1958588655485798, 0.02212389227301471, 0.1805598686391431, 0.15177249139958854, -0.04835789298824261, 0.07612783513385457, 0.31325799466916215, -0.06603212200664633, 0.014913700761750609, 0.013516619996956511, 0.23804040276207375, 0.23654229683662548, 0.16341271401562799, 0.11710247671786705, 0.04782042606761654, 0.1498389403063668, 0.09137443905601292, 0.07330446029313387, 0.14090291930651375, 0.1573858119707, 0.0963037964402574], "split_indices": [3, 49, 3, 0, 3, 49, 3, 42, 3, 3, 5, 34, 3, 32, 32, 45, 3, 38, 5, 43, 11, 5, 43, 41, 3, 5, 3, 20, 2, 3, 0, 0, 0, 0, 0, 0, 0, 0, 0, 0, 0, 0, 0, 0, 0, 0, 0, 0, 0, 0, 0, 0, 0, 0, 0, 0, 0, 0, 0, 0, 0, 0, 0], "split_type": [0, 0, 0, 0, 0, 0, 0, 0, 0, 0, 0, 0, 0, 0, 0, 0, 0, 0, 0, 0, 0, 0, 0, 0, 0, 0, 0, 0, 0, 0, 0, 0, 0, 0, 0, 0, 0, 0, 0, 0, 0, 0, 0, 0, 0, 0, 0, 0, 0, 0, 0, 0, 0, 0, 0, 0, 0, 0, 0, 0, 0, 0, 0], "sum_hessian": [0.0, 0.0, 0.0, 0.0, 0.0, 0.0, 0.0, 0.0, 0.0, 0.0, 0.0, 0.0, 0.0, 0.0, 0.0, 0.0, 0.0, 0.0, 0.0, 0.0, 0.0, 0.0, 0.0, 0.0, 0.0, 0.0, 0.0, 0.0, 0.0, 0.0, 0.0, 0.0, 0.0, 0.0, 0.0, 0.0, 0.0, 0.0, 0.0, 0.0, 0.0, 0.0, 0.0, 0.0, 0.0, 0.0, 0.0, 0.0, 0.0, 0.0, 0.0, 0.0, 0.0, 0.0, 0.0, 0.0, 0.0, 0.0, 0.0, 0.0, 0.0, 0.0, 0.0], "tree_param": {"num_deleted": "0", "num_feature": "51", "num_nodes": "63", "size_leaf_vector": "0"}}, {"base_weights": [-0.0021709269406154186, -0.03532888795907558, 0.12770226132251816, -0.0450359287741162, 0.26675811800717486, 0.07504055169246536, 0.22028972156073642, -0.015622488426865158, -0.06771131588948383, 0.10393567018045803, 0.34258229714216654, 0.11599527781701528, -0.03344963330984332, 0.17825459803360857, 0.2696218958712983, -0.02558618711436566, 0.2261370279594256, -0.06888764814083002, 0.18511954744773076, -0.041507252537532395, 0.1387154995260641, 0.3724343720355559, 0.20327261430634835, 0.0984235482225098, 0.36076638830888874, -0.060216371881731276, 0.02071364944738877, 0.10112811997110414, 0.2159803727218863, 0.26185682324805915, 0.4233440115313621, -0.7845727420808403, 0.2299507350141283, 0.82623637933999, 3.410992424120897, -0.8838192150003135, 1.8337496266965825, -1.1759175340655335, 1.3119495812003978, -0.5096673642283367, 6.804287721011799, 0.6974082453725777, 4.09906427305148, 1.6797997292752285, 1.1687430420406064, 1.2787887538646476, -0.3727241429524284, 0.7097690901835964, 4.019612268075724, 2.1322707713727644, 1.3972393323638523, -0.7034666886595426, 10.814077848446445, 0.7609658361248516, -0.16771483492626105, -0.06172928849617719, 0.8285170544694876, 1.3378168426105421, 0.8407363114977252, 1.0937132026684213, 1.3955599110859054, 2.5851461073609734, 1.1982041952872535], "categories": [], "categories_nodes": [], "categories_segments": [], "categories_sizes": [], "default_left": [1, 1, 1, 1, 1, 1, 1, 1, 1, 1, 1, 1, 1, 1, 1, 1, 1, 1, 1, 1, 1, 1, 1, 1, 1, 1, 1, 1, 1, 1, 1, 0, 0, 0, 0, 0, 0, 0, 0, 0, 0, 0, 0, 0, 0, 0, 0, 0, 0, 0, 0, 0, 0, 0, 0, 0, 0, 0, 0, 0, 0, 0, 0], "id": 5, "left_children": [1, 3, 5, 7, 9, 11, 13, 15, 17, 19, 21, 23, 25, 27, 29, 31, 33, 35, 37, 39, 41, 43, 45, 47, 49, 51, 53, 55, 57, 59, 61, -1, -1, -1, -1, -1, -1, -1, -1, -1, -1, -1, -1, -1, -1, -1, -1, -1, -1, -1, -1, -1, -1, -1, -1, -1, -1, -1, -1, -1, -1, -1, -1], "loss_changes": [0.0, 0.0, 0.0, 0.0, 0.0, 0.0, 0.0, 0.0, 0.0, 0.0, 0.0, 0.0, 0.0, 0.0, 0.0, 0.0, 0.0, 0.0, 0.0, 0.0, 0.0, 0.0, 0.0, 0.0, 0.0, 0.0, 0.0, 0.0, 0.0, 0.0, 0.0, 0.0, 0.0, 0.0, 0.0, 0.0, 0.0, 0.0, 0.0, 0.0, 0.0, 0.0, 0.0, 0.0, 0.0, 0.0, 0.0, 0.0, 0.0, 0.0, 0.0, 0.0, 0.0, 0.0, 0.0, 0.0, 0.0, 0.0, 0.0, 0.0, 0.0, 0.0, 0.0], "parents": [2147483647, 0, 0, 1, 1, 2, 2, 3, 3, 4, 4, 5, 5, 6, 6, 7, 7, 8, 8, 9, 9, 10, 10, 11, 11, 12, 12, 13, 13, 14, 14, 15, 15, 16, 16, 17, 17, 18, 18, 19, 19, 20, 20, 21, 21, 22, 22, 23, 23, 24, 24, 25, 25, 26, 26, 27, 27, 28, 28, 29, 29, 30, 30], "right_children": [2, 4, 6, 8, 10, 12, 14, 16, 18, 20, 22, 24, 26, 28, 30, 32, 34, 36, 38, 40, 42, 44, 46, 48, 50, 52, 54, 56, 58, 60, 62, -1, -1, -1, -1, -1, -1, -1, -1, -1, -1, -1, -1, -1, -1, -1, -1, -1, -1, -1, -1, -1, -1, -1, -1, -1, -1, -1, -1, -1, -1, -1, -1], "split_conditions": [364.5, 0.5, 633.5, 0.5, 161.5, 0.5, 869.5, 0.5, 0.5, 80.0, 199.5, 0.5, 499.0, 0.5, 29.5, 153.5, 140.5, 0.5, 94.5, 14721.5, 0.5, 2613.0, 0.5, 372.5, 4.5, 0.5, 0.5, 56.5, 15.5, 1201.5, 2.5, -0.0824796643152065, 0.018972683394290365, 0.07860124782687654, 0.33707685230496726, -0.09240431160715382, 0.17935257256253578, -0.12161414351367582, 0.12717256801291732, -0.054989126529956134, 0.6764063819940574, 0.06571843443013531, 0.40588403719802557, 0.1639575828204004, 0.11285191409693818, 0.12385648527934232, -0.04129480440236531, 0.06695451891123717, 0.39793883670044994, 0.209204687030154, 0.13570154312926277, -0.07436905897307673, 1.077385394737522, 0.0720741935053627, -0.020793873599748575, -0.010195318956740187, 0.0788293153398263, 0.12975929415393175, 0.08005124104265006, 0.10534893015971968, 0.13553360100146808, 0.25449222062897486, 0.11579802942160289], "split_indices": [3, 49, 3, 29, 3, 34, 3, 35, 42, 3, 5, 49, 3, 32, 2, 3, 3, 46, 3, 1, 13, 1, 43, 5, 2, 38, 43, 1, 2, 3, 4, 0, 0, 0, 0, 0, 0, 0, 0, 0, 0, 0, 0, 0, 0, 0, 0, 0, 0, 0, 0, 0, 0, 0, 0, 0, 0, 0, 0, 0, 0, 0, 0], "split_type": [0, 0, 0, 0, 0, 0, 0, 0, 0, 0, 0, 0, 0, 0, 0, 0, 0, 0, 0, 0, 0, 0, 0, 0, 0, 0, 0, 0, 0, 0, 0, 0, 0, 0, 0, 0, 0, 0, 0, 0, 0, 0, 0, 0, 0, 0, 0, 0, 0, 0, 0, 0, 0, 0, 0, 0, 0, 0, 0, 0, 0, 0, 0], "sum_hessian": [0.0, 0.0, 0.0, 0.0, 0.0, 0.0, 0.0, 0.0, 0.0, 0.0, 0.0, 0.0, 0.0, 0.0, 0.0, 0.0, 0.0, 0.0, 0.0, 0.0, 0.0, 0.0, 0.0, 0.0, 0.0, 0.0, 0.0, 0.0, 0.0, 0.0, 0.0, 0.0, 0.0, 0.0, 0.0, 0.0, 0.0, 0.0, 0.0, 0.0, 0.0, 0.0, 0.0, 0.0, 0.0, 0.0, 0.0, 0.0, 0.0, 0.0, 0.0, 0.0, 0.0, 0.0, 0.0, 0.0, 0.0, 0.0, 0.0, 0.0, 0.0, 0.0, 0.0], "tree_param": {"num_deleted": "0", "num_feature": "51", "num_nodes": "63", "size_leaf_vector": "0"}}, {"base_weights": [-0.0022276442494820296, -0.032047488851932156, 0.11457080092255127, -0.040775661113444384, 0.23957673487164247, 0.06755642877835416, 0.1983079302878974, -0.04328460566250653, 0.1999000717234037, 0.09304912919410865, 0.30781262967245465, 0.10455016027960015, -0.030653461987558348, 0.1578845379754099, 0.23950276138497406, -0.045923392379674355, 0.14592334613428665, 0.013285857295829132, 0.26800099357612084, 0.06873469960635034, 0.2725468299743234, 0.33465388015756525, 0.1825534607419336, 0.09737789563149726, 0.5882476881476328, -0.032103977695509545, 0.9027533960789138, 0.2603286954082319, 0.13678492831444994, 0.27810252965102356, 0.2093056637618743, -0.6267056121374064, 1.52142751240541, 0.1536282462716772, 2.398290849647622, 4.42055484287465, -0.05434547369807519, 1.8636759687172704, 0.835631931615858, 0.3179223027657471, 2.3802722286817155, 3.219398110606424, 0.7897893384418806, 0.1742044286108517, 1.3968827533140062, 0.363264692680843, 1.641800393349215, 0.5818779509227378, 1.740938042878444, 2.3399609573196587, 2.972565710112564, -0.6742393596688602, 0.15686435858760892, 9.511605999704948, 11.190878278035958, 1.7001418311478913, 0.8928318683820093, 0.6793880843443827, 1.5616996764191111, 1.259000519139245, 0.47587751554847885, 0.8982481411845507, 1.9068002051341981], "categories": [], "categories_nodes": [], "categories_segments": [], "categories_sizes": [], "default_left": [1, 1, 1, 1, 1, 1, 1, 1, 1, 1, 1, 1, 1, 1, 1, 1, 1, 1, 1, 1, 1, 1, 1, 1, 1, 1, 1, 1, 1, 1, 1, 0, 0, 0, 0, 0, 0, 0, 0, 0, 0, 0, 0, 0, 0, 0, 0, 0, 0, 0, 0, 0, 0, 0, 0, 0, 0, 0, 0, 0, 0, 0, 0], "id": 6, "left_children": [1, 3, 5, 7, 9, 11, 13, 15, 17, 19, 21, 23, 25, 27, 29, 31, 33, 35, 37, 39, 41, 43, 45, 47, 49, 51, 53, 55, 57, 59, 61, -1, -1, -1, -1, -1, -1, -1, -1, -1, -1, -1, -1, -1, -1, -1, -1, -1, -1, -1, -1, -1, -1, -1, -1, -1, -1, -1, -1, -1, -1, -1, -1], "loss_changes": [0.0, 0.0, 0.0, 0.0, 0.0, 0.0, 0.0, 0.0, 0.0, 0.0, 0.0, 0.0, 0.0, 0.0, 0.0, 0.0, 0.0, 0.0, 0.0, 0.0, 0.0, 0.0, 0.0, 0.0, 0.0, 0.0, 0.0, 0.0, 0.0, 0.0, 0.0, 0.0, 0.0, 0.0, 0.0, 0.0, 0.0, 0.0, 0.0, 0.0, 0.0, 0.0, 0.0, 0.0, 0.0, 0.0, 0.0, 0.0, 0.0, 0.0, 0.0, 0.0, 0.0, 0.0, 0.0, 0.0, 0.0, 0.0, 0.0, 0.0, 0.0, 0.0, 0.0], "parents": [2147483647, 0, 0, 1, 1, 2, 2, 3, 3, 4, 4, 5, 5, 6, 6, 7, 7, 8, 8, 9, 9, 10, 10, 11, 11, 12, 12, 13, 13, 14, 14, 15, 15, 16, 16, 17, 17, 18, 18, 19, 19, 20, 20, 21, 21, 22, 22, 23, 23, 24, 24, 25, 25, 26, 26, 27, 27, 28, 28, 29, 29, 30, 30], "right_children": [2, 4, 6, 8, 10, 12, 14, 16, 18, 20, 22, 24, 26, 28, 30, 32, 34, 36, 38, 40, 42, 44, 46, 48, 50, 52, 54, 56, 58, 60, 62, -1, -1, -1, -1, -1, -1, -1, -1, -1, -1, -1, -1, -1, -1, -1, -1, -1, -1, -1, -1, -1, -1, -1, -1, -1, -1, -1, -1, -1, -1, -1, -1], "split_conditions": [364.5, 0.5, 635.5, 0.5, 161.5, 0.5, 847.5, 0.5, 105.5, 0.5, 199.5, 372.5, 0.5, 0.5, 0.5, 0.5, 21.5, -17.0, 13.5, 0.5, 92.5, 47.0, 279.5, 59.5, 35.0, 499.0, 747.0, 0.5, 58.5, 0.5, 0.5, -0.0666929513208631, 0.14812036113341853, 0.011340434520045253, 0.23580669485763972, 0.4380330941803426, -0.009456937476929987, 0.18234520676460458, 0.07954080305446334, 0.027769840169452244, 0.2340048327610491, 0.31791742095351994, 0.0749565437370656, 0.013398052753962702, 0.13566588522427817, 0.03230407916096183, 0.16015764922779904, 0.05416540498515131, 0.17007141418072194, 0.22997370562484343, 0.29323418090413395, -0.07144632607400848, 0.011664045751638423, 0.9471382098633724, 1.1150654376964733, 0.16599179300766667, 0.08526079673107848, 0.0639164183273158, 0.15214757753478866, 0.12187766180680204, 0.04356536144772542, 0.0858024240113326, 0.18665763040629735], "split_indices": [3, 49, 3, 42, 3, 34, 3, 45, 3, 38, 5, 5, 35, 50, 20, 46, 2, 1, 2, 13, 5, 5, 3, 0, 0, 3, 1, 29, 0, 44, 49, 0, 0, 0, 0, 0, 0, 0, 0, 0, 0, 0, 0, 0, 0, 0, 0, 0, 0, 0, 0, 0, 0, 0, 0, 0, 0, 0, 0, 0, 0, 0, 0], "split_type": [0, 0, 0, 0, 0, 0, 0, 0, 0, 0, 0, 0, 0, 0, 0, 0, 0, 0, 0, 0, 0, 0, 0, 0, 0, 0, 0, 0, 0, 0, 0, 0, 0, 0, 0, 0, 0, 0, 0, 0, 0, 0, 0, 0, 0, 0, 0, 0, 0, 0, 0, 0, 0, 0, 0, 0, 0, 0, 0, 0, 0, 0, 0], "sum_hessian": [0.0, 0.0, 0.0, 0.0, 0.0, 0.0, 0.0, 0.0, 0.0, 0.0, 0.0, 0.0, 0.0, 0.0, 0.0, 0.0, 0.0, 0.0, 0.0, 0.0, 0.0, 0.0, 0.0, 0.0, 0.0, 0.0, 0.0, 0.0, 0.0, 0.0, 0.0, 0.0, 0.0, 0.0, 0.0, 0.0, 0.0, 0.0, 0.0, 0.0, 0.0, 0.0, 0.0, 0.0, 0.0, 0.0, 0.0, 0.0, 0.0, 0.0, 0.0, 0.0, 0.0, 0.0, 0.0, 0.0, 0.0, 0.0, 0.0, 0.0, 0.0, 0.0, 0.0], "tree_param": {"num_deleted": "0", "num_feature": "51", "num_nodes": "63", "size_leaf_vector": "0"}}, {"base_weights": [-0.0021787900795248024, -0.028994547321263123, 0.1028532378771066, -0.03684633949432892, 0.2153563763254875, 0.05648752835886791, 0.17198571976292426, -0.06297972756104751, -0.016516857178115345, 0.043024706088180514, 0.2629130534606758, 0.11659726329618014, 0.006641649283305777, 0.14537267478081095, 0.22871129814473937, -0.06405120498761464, 0.06178557662752089, 0.02752204547406321, -0.04898324447303085, 0.0227173168460154, 0.2415858453449063, 0.28835082511627425, 0.17796345799352262, 0.09540248721705422, 0.4509047817879631, 0.0009262979811124498, 0.43082787874296874, 0.13571858850704396, 0.3466393864447783, 0.23667714463185546, 0.06595457105571417, -0.9465333022103015, -0.36825438054257886, 0.28705209891142636, 4.264041802679182, 0.16389202977656858, 2.4881579944305527, -0.7063134122862766, 2.606985150393378, 0.05967561989261563, 2.2951799754387334, -1.146859959956495, 2.3321326124995827, 1.0184563550963275, 1.4903120311857354, 0.9732543143950875, -0.4335692057753437, 0.4272863922907125, 1.401663066607302, 0.6479146363016336, 2.9453301782276045, -0.047642352664741504, 1.0777083408478452, 1.5517908544162717, 2.342628866735413, 0.4583996334532234, 0.7747553895240141, 1.594569337285539, -0.011161328968732068, 1.1803124876411335, 0.88451578738387, 0.037260365177034516, 2.7699011869602237], "categories": [], "categories_nodes": [], "categories_segments": [], "categories_sizes": [], "default_left": [1, 1, 1, 1, 1, 1, 1, 1, 1, 1, 1, 1, 1, 1, 1, 1, 1, 1, 1, 1, 1, 1, 1, 1, 1, 1, 1, 1, 1, 1, 1, 0, 0, 0, 0, 0, 0, 0, 0, 0, 0, 0, 0, 0, 0, 0, 0, 0, 0, 0, 0, 0, 0, 0, 0, 0, 0, 0, 0, 0, 0, 0, 0], "id": 7, "left_children": [1, 3, 5, 7, 9, 11, 13, 15, 17, 19, 21, 23, 25, 27, 29, 31, 33, 35, 37, 39, 41, 43, 45, 47, 49, 51, 53, 55, 57, 59, 61, -1, -1, -1, -1, -1, -1, -1, -1, -1, -1, -1, -1, -1, -1, -1, -1, -1, -1, -1, -1, -1, -1, -1, -1, -1, -1, -1, -1, -1, -1, -1, -1], "loss_changes": [0.0, 0.0, 0.0, 0.0, 0.0, 0.0, 0.0, 0.0, 0.0, 0.0, 0.0, 0.0, 0.0, 0.0, 0.0, 0.0, 0.0, 0.0, 0.0, 0.0, 0.0, 0.0, 0.0, 0.0, 0.0, 0.0, 0.0, 0.0, 0.0, 0.0, 0.0, 0.0, 0.0, 0.0, 0.0, 0.0, 0.0, 0.0, 0.0, 0.0, 0.0, 0.0, 0.0, 0.0, 0.0, 0.0, 0.0, 0.0, 0.0, 0.0, 0.0, 0.0, 0.0, 0.0, 0.0, 0.0, 0.0, 0.0, 0.0, 0.0, 0.0, 0.0, 0.0], "parents": [2147483647, 0, 0, 1, 1, 2, 2, 3, 3, 4, 4, 5, 5, 6, 6, 7, 7, 8, 8, 9, 9, 10, 10, 11, 11, 12, 12, 13, 13, 14, 14, 15, 15, 16, 16, 17, 17, 18, 18, 19, 19, 20, 20, 21, 21, 22, 22, 23, 23, 24, 24, 25, 25, 26, 26, 27, 27, 28, 28, 29, 29, 30, 30], "right_children": [2, 4, 6, 8, 10, 12, 14, 16, 18, 20, 22, 24, 26, 28, 30, 32, 34, 36, 38, 40, 42, 44, 46, 48, 50, 52, 54, 56, 58, 60, 62, -1, -1, -1, -1, -1, -1, -1, -1, -1, -1, -1, -1, -1, -1, -1, -1, -1, -1, -1, -1, -1, -1, -1, -1, -1, -1, -1, -1, -1, -1, -1, -1], "split_conditions": [364.5, 0.5, 605.5, 129.5, 132.5, 0.5, 953.5, 0.5, 0.5, 0.5, 187.5, 0.5, 369.5, 0.5, 314.5, 0.5, 8839.5, 0.5, 0.5, 0.5, 82.0, 177.5, 0.5, 30.5, 47.5, 0.5, 374.5, 0.5, 0.5, 0.5, 21.0, -0.09867572032815262, -0.040847828161380356, 0.02468281978402017, 0.4223817901607958, 0.012366812870534392, 0.24479340933593283, -0.07465373133575014, 0.25667612493221537, 0.001945171882139096, 0.2254956074367509, -0.11870838610277197, 0.22919087114283582, 0.09782324540251029, 0.14500881301145108, 0.09330304133238629, -0.04737931068465684, 0.03870624912194878, 0.13614391655360775, 0.060769073523040895, 0.290510627715638, -0.008786625373596618, 0.10374844397766206, 0.1511566953345047, 0.23024049656641887, 0.04181757323819987, 0.07345314884527895, 0.15543454362143144, -0.005138523003995674, 0.1140088586569909, 0.08442918863126454, -0.00029635358941901627, 0.2729677285888999], "split_indices": [3, 49, 3, 3, 3, 29, 3, 42, 29, 46, 5, 35, 5, 49, 5, 35, 1, 35, 46, 42, 3, 5, 43, 5, 1, 49, 5, 32, 16, 20, 2, 0, 0, 0, 0, 0, 0, 0, 0, 0, 0, 0, 0, 0, 0, 0, 0, 0, 0, 0, 0, 0, 0, 0, 0, 0, 0, 0, 0, 0, 0, 0, 0], "split_type": [0, 0, 0, 0, 0, 0, 0, 0, 0, 0, 0, 0, 0, 0, 0, 0, 0, 0, 0, 0, 0, 0, 0, 0, 0, 0, 0, 0, 0, 0, 0, 0, 0, 0, 0, 0, 0, 0, 0, 0, 0, 0, 0, 0, 0, 0, 0, 0, 0, 0, 0, 0, 0, 0, 0, 0, 0, 0, 0, 0, 0, 0, 0], "sum_hessian": [0.0, 0.0, 0.0, 0.0, 0.0, 0.0, 0.0, 0.0, 0.0, 0.0, 0.0, 0.0, 0.0, 0.0, 0.0, 0.0, 0.0, 0.0, 0.0, 0.0, 0.0, 0.0, 0.0, 0.0, 0.0, 0.0, 0.0, 0.0, 0.0, 0.0, 0.0, 0.0, 0.0, 0.0, 0.0, 0.0, 0.0, 0.0, 0.0, 0.0, 0.0, 0.0, 0.0, 0.0, 0.0, 0.0, 0.0, 0.0, 0.0, 0.0, 0.0, 0.0, 0.0, 0.0, 0.0, 0.0, 0.0, 0.0, 0.0, 0.0, 0.0, 0.0, 0.0], "tree_param": {"num_deleted": "0", "num_feature": "51", "num_nodes": "63", "size_leaf_vector": "0"}}, {"base_weights": [-0.0021480620368169202, -0.02628480216474711, 0.09239078469592571, -0.0333522800326642, 0.19365794553095353, 0.05068522061075491, 0.15457486822691435, -0.018851362995859378, -0.06720796305350918, 0.07286964691434102, 0.24990739831810088, 0.08143383974979525, -0.029811986108211022, 0.12326091392738345, 0.19384878190182303, -0.024686093453291504, 0.22649005645878748, -0.06825967829913829, 0.18328055944839886, 0.051071027726705125, 0.23379474738777054, 0.27168155167887637, 0.14829468263448553, 0.1299339912029477, 0.026505957381165623, -0.031164407180136373, 0.7917838150863871, 0.14795415654517838, 0.055956429513349525, 0.18356652948025048, 0.2948867829700015, -0.8403132768784171, -0.0021071023060860623, 0.3816580782114185, 4.654437367968617, -1.0286330121187024, 7.539666549371885, 9.103876720899633, 0.09255534217028162, 0.2117568575304494, 1.8314856070468886, 0.24274823428078457, 2.288585756921014, 1.2068791069366653, 0.77715765700147, 0.25877673722273986, 1.3371506512670621, 0.6806751142143772, 2.1531770135591897, 0.15275153616823714, 2.0820034591579955, -0.36557354238695855, 4.411340702509271, 4.8310472997395, 4.774684650436123, 0.5578461284197407, 1.2466328549092762, 0.8143377156871976, 0.14700777115146973, 0.7662407415567734, 2.3933402395112866, 0.9566725618995359, 1.9837328545675195], "categories": [], "categories_nodes": [], "categories_segments": [], "categories_sizes": [], "default_left": [1, 1, 1, 1, 1, 1, 1, 1, 1, 1, 1, 1, 1, 1, 1, 1, 1, 1, 1, 1, 1, 1, 1, 1, 1, 1, 1, 1, 1, 1, 1, 0, 0, 0, 0, 0, 0, 0, 0, 0, 0, 0, 0, 0, 0, 0, 0, 0, 0, 0, 0, 0, 0, 0, 0, 0, 0, 0, 0, 0, 0, 0, 0], "id": 8, "left_children": [1, 3, 5, 7, 9, 11, 13, 15, 17, 19, 21, 23, 25, 27, 29, 31, 33, 35, 37, 39, 41, 43, 45, 47, 49, 51, 53, 55, 57, 59, 61, -1, -1, -1, -1, -1, -1, -1, -1, -1, -1, -1, -1, -1, -1, -1, -1, -1, -1, -1, -1, -1, -1, -1, -1, -1, -1, -1, -1, -1, -1, -1, -1], "loss_changes": [0.0, 0.0, 0.0, 0.0, 0.0, 0.0, 0.0, 0.0, 0.0, 0.0, 0.0, 0.0, 0.0, 0.0, 0.0, 0.0, 0.0, 0.0, 0.0, 0.0, 0.0, 0.0, 0.0, 0.0, 0.0, 0.0, 0.0, 0.0, 0.0, 0.0, 0.0, 0.0, 0.0, 0.0, 0.0, 0.0, 0.0, 0.0, 0.0, 0.0, 0.0, 0.0, 0.0, 0.0, 0.0, 0.0, 0.0, 0.0, 0.0, 0.0, 0.0, 0.0, 0.0, 0.0, 0.0, 0.0, 0.0, 0.0, 0.0, 0.0, 0.0, 0.0, 0.0], "parents": [2147483647, 0, 0, 1, 1, 2, 2, 3, 3, 4, 4, 5, 5, 6, 6, 7, 7, 8, 8, 9, 9, 10, 10, 11, 11, 12, 12, 13, 13, 14, 14, 15, 15, 16, 16, 17, 17, 18, 18, 19, 19, 20, 20, 21, 21, 22, 22, 23, 23, 24, 24, 25, 25, 26, 26, 27, 27, 28, 28, 29, 29, 30, 30], "right_children": [2, 4, 6, 8, 10, 12, 14, 16, 18, 20, 22, 24, 26, 28, 30, 32, 34, 36, 38, 40, 42, 44, 46, 48, 50, 52, 54, 56, 58, 60, 62, -1, -1, -1, -1, -1, -1, -1, -1, -1, -1, -1, -1, -1, -1, -1, -1, -1, -1, -1, -1, -1, -1, -1, -1, -1, -1, -1, -1, -1, -1, -1, -1], "split_conditions": [364.5, 0.5, 605.5, 0.5, 161.5, 0.5, 847.5, 0.5, 0.5, 0.5, 199.5, 0.5, 0.5, 0.5, 0.5, 129.5, 154.5, 0.5, 15.0, 0.5, 8.5, 2338.5, 279.5, 0.5, 374.5, 0.5, 0.5, 0.5, 33.5, 0.5, 1303.0, -0.08805371779496418, -0.004233100337731074, 0.03414341771401938, 0.4614213466897393, -0.10688569131899271, 0.7499442648300662, 0.9063652819828408, 0.005233144109905694, 0.017153295645922474, 0.17912617059756641, 0.02025243332095599, 0.22483618558497898, 0.11666552058654407, 0.07369337559302454, 0.02185528361515152, 0.12969267501958376, 0.06404512131431526, 0.21129531124879652, 0.011252763509701247, 0.2041779558086771, -0.04057974434581832, 0.4371116801438047, 0.4790823398668275, 0.4734460749364899, 0.05176222273485161, 0.12064089538380517, 0.0774113814615973, 0.010678387008024506, 0.07260168404855488, 0.23531163384400622, 0.09164486608283112, 0.1943508953496295], "split_indices": [3, 49, 3, 34, 3, 34, 3, 41, 44, 38, 5, 29, 36, 34, 7, 3, 3, 35, 2, 13, 2, 1, 3, 35, 5, 38, 13, 43, 0, 42, 3, 0, 0, 0, 0, 0, 0, 0, 0, 0, 0, 0, 0, 0, 0, 0, 0, 0, 0, 0, 0, 0, 0, 0, 0, 0, 0, 0, 0, 0, 0, 0, 0], "split_type": [0, 0, 0, 0, 0, 0, 0, 0, 0, 0, 0, 0, 0, 0, 0, 0, 0, 0, 0, 0, 0, 0, 0, 0, 0, 0, 0, 0, 0, 0, 0, 0, 0, 0, 0, 0, 0, 0, 0, 0, 0, 0, 0, 0, 0, 0, 0, 0, 0, 0, 0, 0, 0, 0, 0, 0, 0, 0, 0, 0, 0, 0, 0], "sum_hessian": [0.0, 0.0, 0.0, 0.0, 0.0, 0.0, 0.0, 0.0, 0.0, 0.0, 0.0, 0.0, 0.0, 0.0, 0.0, 0.0, 0.0, 0.0, 0.0, 0.0, 0.0, 0.0, 0.0, 0.0, 0.0, 0.0, 0.0, 0.0, 0.0, 0.0, 0.0, 0.0, 0.0, 0.0, 0.0, 0.0, 0.0, 0.0, 0.0, 0.0, 0.0, 0.0, 0.0, 0.0, 0.0, 0.0, 0.0, 0.0, 0.0, 0.0, 0.0, 0.0, 0.0, 0.0, 0.0, 0.0, 0.0, 0.0, 0.0, 0.0, 0.0, 0.0, 0.0], "tree_param": {"num_deleted": "0", "num_feature": "51", "num_nodes": "63", "size_leaf_vector": "0"}}, {"base_weights": [-0.0021424323854328177, -0.02388144512039043, 0.0830049894361512, -0.030247995281058253, 0.17424815101674837, 0.0454825920126637, 0.13895186239775745, -0.03246204897821374, 0.18213971823068964, 0.032684303072435854, 0.21331413465998628, 0.03531407584222172, 0.24750353886808704, 0.13208966297625518, 0.29164930779276077, -0.03485971810437206, 0.13945713702286588, -0.08890038394680021, 0.21963538453982892, 0.014338159338199081, 0.21206881958497326, 0.16510654584500942, 0.24878539754112944, 0.03071627176888813, 0.42406310187938556, 0.33361426832464103, 0.1980220002997687, 0.1085867649507293, 0.1817356524178389, -0.45191106060271496, 0.30963867154426455, -0.564777545364269, 0.8209267401085792, 0.2117726441276762, 1.9790020926394758, -0.20755411946157035, -1.1331587062860196, 1.2334314415708967, -0.45273370790925305, 0.8024681547576529, -0.1477951729085293, -1.2692602417151932, 2.015566659757803, 0.8494985486267286, 0.12171923740886834, 1.090188190830195, 0.42407665745066964, 0.1685983941435796, 1.1192385002680176, 2.131779162369798, -1.216508916691119, 0.44017219546883696, 1.6959626291166832, -1.6272844565967792, 1.029388479012926, 0.7563605651692333, 0.37800208448114714, 0.8064845380685908, 0.22929297166795243, -1.8965939480055742, -1.699493432323813, 0.07063920002306145, 1.3903390950408747], "categories": [], "categories_nodes": [], "categories_segments": [], "categories_sizes": [], "default_left": [1, 1, 1, 1, 1, 1, 1, 1, 1, 1, 1, 1, 1, 1, 1, 1, 1, 1, 1, 1, 1, 1, 1, 1, 1, 1, 1, 1, 1, 1, 1, 0, 0, 0, 0, 0, 0, 0, 0, 0, 0, 0, 0, 0, 0, 0, 0, 0, 0, 0, 0, 0, 0, 0, 0, 0, 0, 0, 0, 0, 0, 0, 0], "id": 9, "left_children": [1, 3, 5, 7, 9, 11, 13, 15, 17, 19, 21, 23, 25, 27, 29, 31, 33, 35, 37, 39, 41, 43, 45, 47, 49, 51, 53, 55, 57, 59, 61, -1, -1, -1, -1, -1, -1, -1, -1, -1, -1, -1, -1, -1, -1, -1, -1, -1, -1, -1, -1, -1, -1, -1, -1, -1, -1, -1, -1, -1, -1, -1, -1], "loss_changes": [0.0, 0.0, 0.0, 0.0, 0.0, 0.0, 0.0, 0.0, 0.0, 0.0, 0.0, 0.0, 0.0, 0.0, 0.0, 0.0, 0.0, 0.0, 0.0, 0.0, 0.0, 0.0, 0.0, 0.0, 0.0, 0.0, 0.0, 0.0, 0.0, 0.0, 0.0, 0.0, 0.0, 0.0, 0.0, 0.0, 0.0, 0.0, 0.0, 0.0, 0.0, 0.0, 0.0, 0.0, 0.0, 0.0, 0.0, 0.0, 0.0, 0.0, 0.0, 0.0, 0.0, 0.0, 0.0, 0.0, 0.0, 0.0, 0.0, 0.0, 0.0, 0.0, 0.0], "parents": [2147483647, 0, 0, 1, 1, 2, 2, 3, 3, 4, 4, 5, 5, 6, 6, 7, 7, 8, 8, 9, 9, 10, 10, 11, 11, 12, 12, 13, 13, 14, 14, 15, 15, 16, 16, 17, 17, 18, 18, 19, 19, 20, 20, 21, 21, 22, 22, 23, 23, 24, 24, 25, 25, 26, 26, 27, 27, 28, 28, 29, 29, 30, 30], "right_children": [2, 4, 6, 8, 10, 12, 14, 16, 18, 20, 22, 24, 26, 28, 30, 32, 34, 36, 38, 40, 42, 44, 46, 48, 50, 52, 54, 56, 58, 60, 62, -1, -1, -1, -1, -1, -1, -1, -1, -1, -1, -1, -1, -1, -1, -1, -1, -1, -1, -1, -1, -1, -1, -1, -1, -1, -1, -1, -1, -1, -1, -1, -1], "split_conditions": [364.5, 0.5, 605.5, 0.5, 132.5, 0.5, 0.5, 0.5, 79.0, 0.5, 214.5, 369.5, 96.5, 953.5, 1.5, 60.5, 21.5, 547.0, 0.5, 30.5, 33.5, 2605.5, 0.5, 59.5, 0.5, 81.0, 111.0, 1.5, 146.5, 0.5, 0.5, -0.06050014464354937, 0.07807028390373547, 0.017154874305645156, 0.19387781915682512, -0.024777802053279504, -0.11733826073572443, 0.11932075404996721, -0.04929576089804777, 0.07622442536864282, -0.0188019073979754, -0.1309484142786418, 0.19753427586865782, 0.0809274647555504, 0.008149533633764366, 0.10499642897589703, 0.0383852756379445, 0.012837449307235495, 0.10790145991967931, 0.20915552612985733, -0.12567328177623438, 0.03999482943976124, 0.16557387280454586, -0.1667508357668004, 0.09891645779417013, 0.07161366640980088, 0.03377781834099225, 0.07662606369973662, 0.018906907059672778, -0.1936817849076799, -0.17397173333950378, 0.0030415298951836783, 0.135011519396965], "split_indices": [3, 49, 3, 42, 3, 49, 49, 45, 3, 46, 3, 5, 5, 3, 2, 0, 2, 1, 33, 0, 0, 1, 43, 0, 31, 5, 5, 4, 5, 20, 1, 0, 0, 0, 0, 0, 0, 0, 0, 0, 0, 0, 0, 0, 0, 0, 0, 0, 0, 0, 0, 0, 0, 0, 0, 0, 0, 0, 0, 0, 0, 0, 0], "split_type": [0, 0, 0, 0, 0, 0, 0, 0, 0, 0, 0, 0, 0, 0, 0, 0, 0, 0, 0, 0, 0, 0, 0, 0, 0, 0, 0, 0, 0, 0, 0, 0, 0, 0, 0, 0, 0, 0, 0, 0, 0, 0, 0, 0, 0, 0, 0, 0, 0, 0, 0, 0, 0, 0, 0, 0, 0, 0, 0, 0, 0, 0, 0], "sum_hessian": [0.0, 0.0, 0.0, 0.0, 0.0, 0.0, 0.0, 0.0, 0.0, 0.0, 0.0, 0.0, 0.0, 0.0, 0.0, 0.0, 0.0, 0.0, 0.0, 0.0, 0.0, 0.0, 0.0, 0.0, 0.0, 0.0, 0.0, 0.0, 0.0, 0.0, 0.0, 0.0, 0.0, 0.0, 0.0, 0.0, 0.0, 0.0, 0.0, 0.0, 0.0, 0.0, 0.0, 0.0, 0.0, 0.0, 0.0, 0.0, 0.0, 0.0, 0.0, 0.0, 0.0, 0.0, 0.0, 0.0, 0.0, 0.0, 0.0, 0.0, 0.0, 0.0, 0.0], "tree_param": {"num_deleted": "0", "num_feature": "51", "num_nodes": "63", "size_leaf_vector": "0"}}, {"base_weights": [-0.002022193282325783, -0.033895813231456115, 0.04666922180384167, -0.03744396735327508, 0.11056958407566672, 0.07412554923921279, -0.023969978669084416, -0.03906038930150746, 0.12516038339181523, 0.025339018672265262, 0.15747161119114797, 0.06549155193809741, 0.3650360239606388, -0.054345053811359414, 0.06539133983510695, -0.040705008821850734, 0.08119880650203826, -0.08036643735802898, 0.16626574754178425, 0.005573781244041148, 0.18939048932652533, 0.19648414254430338, 0.020667667912749703, 0.054190533204664146, 0.22844214255045914, 0.4037142643883889, 0.15398736423530793, -0.0556742405197171, 0.7389135737362524, 0.02133750897098818, 0.11049825032147564, -0.7286287998752664, 0.25920757564531893, -1.0707741065573804, 1.0744532456590017, -0.18992396482165938, -1.118934932400959, 1.0534147801594727, -0.38303214182517203, 0.24513496752839287, -1.2240789773479048, -0.15657382783020202, 2.8760880190745053, -0.6937078861803151, 0.8728237828771817, -0.14247118661766123, 1.6989321702161393, 0.29810180602497105, 0.5745761886610721, 0.6323796860503479, 1.0743446106154795, 2.825942736105192, 1.1252857334627206, -1.4948894787321987, 1.1025984939466293, -0.8252383046380208, 3.9593948574849986, 2.0927349227526113, 4.853325179634913, 0.2946132068174827, -0.5375780947968577, 0.44541711128945455, 1.741317114479244], "categories": [], "categories_nodes": [], "categories_segments": [], "categories_sizes": [], "default_left": [1, 1, 1, 1, 1, 1, 1, 1, 1, 1, 1, 1, 1, 1, 1, 1, 1, 1, 1, 1, 1, 1, 1, 1, 1, 1, 1, 1, 1, 1, 1, 0, 0, 0, 0, 0, 0, 0, 0, 0, 0, 0, 0, 0, 0, 0, 0, 0, 0, 0, 0, 0, 0, 0, 0, 0, 0, 0, 0, 0, 0, 0, 0], "id": 10, "left_children": [1, 3, 5, 7, 9, 11, 13, 15, 17, 19, 21, 23, 25, 27, 29, 31, 33, 35, 37, 39, 41, 43, 45, 47, 49, 51, 53, 55, 57, 59, 61, -1, -1, -1, -1, -1, -1, -1, -1, -1, -1, -1, -1, -1, -1, -1, -1, -1, -1, -1, -1, -1, -1, -1, -1, -1, -1, -1, -1, -1, -1, -1, -1], "loss_changes": [0.0, 0.0, 0.0, 0.0, 0.0, 0.0, 0.0, 0.0, 0.0, 0.0, 0.0, 0.0, 0.0, 0.0, 0.0, 0.0, 0.0, 0.0, 0.0, 0.0, 0.0, 0.0, 0.0, 0.0, 0.0, 0.0, 0.0, 0.0, 0.0, 0.0, 0.0, 0.0, 0.0, 0.0, 0.0, 0.0, 0.0, 0.0, 0.0, 0.0, 0.0, 0.0, 0.0, 0.0, 0.0, 0.0, 0.0, 0.0, 0.0, 0.0, 0.0, 0.0, 0.0, 0.0, 0.0, 0.0, 0.0, 0.0, 0.0, 0.0, 0.0, 0.0, 0.0], "parents": [2147483647, 0, 0, 1, 1, 2, 2, 3, 3, 4, 4, 5, 5, 6, 6, 7, 7, 8, 8, 9, 9, 10, 10, 11, 11, 12, 12, 13, 13, 14, 14, 15, 15, 16, 16, 17, 17, 18, 18, 19, 19, 20, 20, 21, 21, 22, 22, 23, 23, 24, 24, 25, 25, 26, 26, 27, 27, 28, 28, 29, 29, 30, 30], "right_children": [2, 4, 6, 8, 10, 12, 14, 16, 18, 20, 22, 24, 26, 28, 30, 32, 34, 36, 38, 40, 42, 44, 46, 48, 50, 52, 54, 56, 58, 60, 62, -1, -1, -1, -1, -1, -1, -1, -1, -1, -1, -1, -1, -1, -1, -1, -1, -1, -1, -1, -1, -1, -1, -1, -1, -1, -1, -1, -1, -1, -1, -1, -1], "split_conditions": [225.5, 0.5, 0.5, 0.5, 127.5, 0.5, 534.5, 0.5, 79.0, 0.5, 2605.5, 0.5, 57.5, 0.5, 744.5, 0.5, 95.5, 547.0, 2.5, 3.5, 8.5, 28.5, 0.5, 605.5, 0.5, 0.5, 1.5, 0.5, 0.5, 0.5, 58.5, -0.07688527009464911, 0.021898367457409428, -0.11109980076286051, 0.1034229344587777, -0.02301478658928841, -0.11591588334721836, 0.10131908790882481, -0.042325604289639676, 0.02049110664571682, -0.12643028784191296, -0.01967977289014267, 0.28358641180032806, -0.07339317872515398, 0.08325998818059571, -0.018269508768888592, 0.16587082691449148, 0.02578779049537464, 0.05343522875898474, 0.05921557849791233, 0.10341207095442549, 0.27857188350339673, 0.10850618323914961, -0.15351133798034233, 0.10623745928754047, -0.08654622057092455, 0.39191709564137744, 0.2052511021681387, 0.48131012785636884, 0.025438930574625804, -0.057780199586808245, 0.040519321021822985, 0.17010932134080195], "split_indices": [3, 49, 34, 42, 3, 41, 3, 45, 3, 38, 1, 49, 0, 45, 3, 35, 3, 1, 6, 4, 2, 5, 46, 3, 28, 49, 2, 36, 50, 22, 0, 0, 0, 0, 0, 0, 0, 0, 0, 0, 0, 0, 0, 0, 0, 0, 0, 0, 0, 0, 0, 0, 0, 0, 0, 0, 0, 0, 0, 0, 0, 0, 0], "split_type": [0, 0, 0, 0, 0, 0, 0, 0, 0, 0, 0, 0, 0, 0, 0, 0, 0, 0, 0, 0, 0, 0, 0, 0, 0, 0, 0, 0, 0, 0, 0, 0, 0, 0, 0, 0, 0, 0, 0, 0, 0, 0, 0, 0, 0, 0, 0, 0, 0, 0, 0, 0, 0, 0, 0, 0, 0, 0, 0, 0, 0, 0, 0], "sum_hessian": [0.0, 0.0, 0.0, 0.0, 0.0, 0.0, 0.0, 0.0, 0.0, 0.0, 0.0, 0.0, 0.0, 0.0, 0.0, 0.0, 0.0, 0.0, 0.0, 0.0, 0.0, 0.0, 0.0, 0.0, 0.0, 0.0, 0.0, 0.0, 0.0, 0.0, 0.0, 0.0, 0.0, 0.0, 0.0, 0.0, 0.0, 0.0, 0.0, 0.0, 0.0, 0.0, 0.0, 0.0, 0.0, 0.0, 0.0, 0.0, 0.0, 0.0, 0.0, 0.0, 0.0, 0.0, 0.0, 0.0, 0.0, 0.0, 0.0, 0.0, 0.0, 0.0, 0.0], "tree_param": {"num_deleted": "0", "num_feature": "51", "num_nodes": "63", "size_leaf_vector": "0"}}, {"base_weights": [-0.0019490431107274866, -0.033382472980428415, 0.038164681930044034, -0.03618179820649602, 0.09024296111253742, 0.08316486807233327, 0.0025501039459566908, -0.0375618869887871, 0.09995459775540383, 0.022546551979481147, 0.13811950901652392, 0.054632624166793896, 0.2055718496505135, -0.02205570044649775, 0.07550955881191447, 0.010747409109994211, -0.040515441985694865, 0.1293260076943997, -0.14900306744180014, 4.604478233402476, 0.018436965089871336, 0.15681001459348784, -0.19430448303090544, 0.04041296187990501, 0.36683448365112487, 0.21822822000568787, -0.005705159478533353, -0.025800750076730408, 0.4612759988905747, 0.04420100548934731, 0.13319367865654344, -0.8264188017740449, 1.1722997061466882, -0.746608263170764, 0.0735921670636889, 0.48901948731436845, 1.661907817723341, -1.5429553677532302, 0.45505178727015233, 0.3012969619381452, -0.7947907188697586, 0.7866257758353948, 0.03150337616073122, -1.0381500822890153, 1.9800184575523618, 1.9031672047678037, 0.24657638065896018, 0.21955843367404354, 2.200703084591311, 1.5518130028359993, 1.0123152440185998, -0.23255106117221108, 4.800762591532709, -0.34559049878763587, 3.437111689967893, 2.572146677245861, -0.5166707789476167, 0.3309261914596667, -0.4343556215006469, 0.5261813858289225, 2.0183304956733847], "categories": [], "categories_nodes": [], "categories_segments": [], "categories_sizes": [], "default_left": [1, 1, 1, 1, 1, 1, 1, 1, 1, 1, 1, 1, 1, 1, 1, 1, 1, 1, 1, 0, 1, 1, 1, 1, 1, 1, 1, 1, 1, 1, 1, 0, 0, 0, 0, 0, 0, 0, 0, 0, 0, 0, 0, 0, 0, 0, 0, 0, 0, 0, 0, 0, 0, 0, 0, 0, 0, 0, 0, 0, 0], "id": 11, "left_children": [1, 3, 5, 7, 9, 11, 13, 15, 17, 19, 21, 23, 25, 27, 29, 31, 33, 35, 37, -1, 39, 41, 43, 45, 47, 49, 51, 53, 55, 57, 59, -1, -1, -1, -1, -1, -1, -1, -1, -1, -1, -1, -1, -1, -1, -1, -1, -1, -1, -1, -1, -1, -1, -1, -1, -1, -1, -1, -1, -1, -1], "loss_changes": [0.0, 0.0, 0.0, 0.0, 0.0, 0.0, 0.0, 0.0, 0.0, 0.0, 0.0, 0.0, 0.0, 0.0, 0.0, 0.0, 0.0, 0.0, 0.0, 0.0, 0.0, 0.0, 0.0, 0.0, 0.0, 0.0, 0.0, 0.0, 0.0, 0.0, 0.0, 0.0, 0.0, 0.0, 0.0, 0.0, 0.0, 0.0, 0.0, 0.0, 0.0, 0.0, 0.0, 0.0, 0.0, 0.0, 0.0, 0.0, 0.0, 0.0, 0.0, 0.0, 0.0, 0.0, 0.0, 0.0, 0.0, 0.0, 0.0, 0.0, 0.0], "parents": [2147483647, 0, 0, 1, 1, 2, 2, 3, 3, 4, 4, 5, 5, 6, 6, 7, 7, 8, 8, 9, 9, 10, 10, 11, 11, 12, 12, 13, 13, 14, 14, 15, 15, 16, 16, 17, 17, 18, 18, 20, 20, 21, 21, 22, 22, 23, 23, 24, 24, 25, 25, 26, 26, 27, 27, 28, 28, 29, 29, 30, 30], "right_children": [2, 4, 6, 8, 10, 12, 14, 16, 18, 20, 22, 24, 26, 28, 30, 32, 34, 36, 38, -1, 40, 42, 44, 46, 48, 50, 52, 54, 56, 58, 60, -1, -1, -1, -1, -1, -1, -1, -1, -1, -1, -1, -1, -1, -1, -1, -1, -1, -1, -1, -1, -1, -1, -1, -1, -1, -1, -1, -1, -1, -1], "split_conditions": [205.5, 0.5, 0.5, 0.5, 127.5, 27.5, 523.5, 27.5, 2.5, 7.0, 68.5, 0.5, 0.5, 381.5, 827.5, 0.5, 0.5, 173.5, 0.5, 0.4564254332331252, 0.5, 0.5, 0.5, 25.5, 22.5, 92.5, 385.5, 0.5, 3.5, 0.5, 59.5, -0.08666427028452696, 0.11320758050754637, -0.07868321642419887, 0.0033368265992464227, 0.04487955862431438, 0.16216839166521166, -0.1583179268824455, 0.04148278861989277, 0.026107306086692053, -0.08350146199409833, 0.07464018747641703, -0.0008720524910493456, -0.107837398336024, 0.19397945564811372, 0.18629433036965792, 0.020635247958773553, 0.01793345326028189, 0.21604791835200865, 0.15115891017647748, 0.09720913429473753, -0.027277496224343577, 0.47605386904614844, -0.03858143998588606, 0.33968877888966686, 0.25319227761746366, -0.05568946800188414, 0.029070229038844198, -0.04745795225718716, 0.04859574847576978, 0.19781065946021603], "split_indices": [3, 49, 29, 42, 3, 5, 3, 0, 6, 5, 0, 35, 31, 5, 3, 28, 38, 3, 11, 0, 7, 16, 35, 0, 1, 5, 5, 37, 4, 35, 0, 0, 0, 0, 0, 0, 0, 0, 0, 0, 0, 0, 0, 0, 0, 0, 0, 0, 0, 0, 0, 0, 0, 0, 0, 0, 0, 0, 0, 0, 0], "split_type": [0, 0, 0, 0, 0, 0, 0, 0, 0, 0, 0, 0, 0, 0, 0, 0, 0, 0, 0, 0, 0, 0, 0, 0, 0, 0, 0, 0, 0, 0, 0, 0, 0, 0, 0, 0, 0, 0, 0, 0, 0, 0, 0, 0, 0, 0, 0, 0, 0, 0, 0, 0, 0, 0, 0, 0, 0, 0, 0, 0, 0], "sum_hessian": [0.0, 0.0, 0.0, 0.0, 0.0, 0.0, 0.0, 0.0, 0.0, 0.0, 0.0, 0.0, 0.0, 0.0, 0.0, 0.0, 0.0, 0.0, 0.0, 0.0, 0.0, 0.0, 0.0, 0.0, 0.0, 0.0, 0.0, 0.0, 0.0, 0.0, 0.0, 0.0, 0.0, 0.0, 0.0, 0.0, 0.0, 0.0, 0.0, 0.0, 0.0, 0.0, 0.0, 0.0, 0.0, 0.0, 0.0, 0.0, 0.0, 0.0, 0.0, 0.0, 0.0, 0.0, 0.0, 0.0, 0.0, 0.0, 0.0, 0.0, 0.0], "tree_param": {"num_deleted": "0", "num_feature": "51", "num_nodes": "61", "size_leaf_vector": "0"}}, {"base_weights": [-0.0018673355413813663, -0.022487939107158166, 0.04861569229402187, -0.02636131945193718, 0.11236187981389746, 0.07165110951186002, -0.011322273454452731, -0.028043844148478235, 0.1310439644694224, 0.04581376293201938, 0.15755849315287826, 0.06493600506269738, 0.30049316437427853, -0.03315342938522556, 0.0879367155107929, -0.030356672039425815, 0.0911799731744947, 0.06685139569983556, 0.23803157908540007, 0.03085183404892235, 0.2374689471964535, 0.18328643400446756, -0.03212201194903543, 0.05979470757851281, 0.2978141464532534, 0.3504328165256696, 0.08075869490815753, -0.0517567956777656, 0.008742162551515756, 0.1659759873906449, 0.03164609317122777, -0.5448915961247232, 1.1691848036000647, 0.1434530161338097, 2.4680650836710916, -0.29869089000679855, 0.9029604346654075, 1.3026647525251223, -0.17134479367409947, 0.23041915619007414, -1.4541635652094813, -0.034263496332734435, 2.1031328150832738, 0.8909809855827661, 0.17877679690717452, 0.20181005557606915, -1.3968179085092627, 0.2844970935301676, 0.48452177170771454, 1.8502287892567737, 0.38373020599700436, 2.453750657363015, 1.1266465808570816, -0.22017235246319813, 1.8958740391454334, -0.8247690596624255, 3.3086715021665922, 0.4764224391094112, -0.19933231684782407, -1.6901999638287761, 0.7588120222846474, -0.07922169935629106, 0.5177295765311865], "categories": [], "categories_nodes": [], "categories_segments": [], "categories_sizes": [], "default_left": [1, 1, 1, 1, 1, 1, 1, 1, 1, 1, 1, 1, 1, 1, 1, 1, 1, 1, 1, 1, 1, 1, 1, 1, 1, 1, 1, 1, 1, 1, 1, 0, 0, 0, 0, 0, 0, 0, 0, 0, 0, 0, 0, 0, 0, 0, 0, 0, 0, 0, 0, 0, 0, 0, 0, 0, 0, 0, 0, 0, 0, 0, 0], "id": 12, "left_children": [1, 3, 5, 7, 9, 11, 13, 15, 17, 19, 21, 23, 25, 27, 29, 31, 33, 35, 37, 39, 41, 43, 45, 47, 49, 51, 53, 55, 57, 59, 61, -1, -1, -1, -1, -1, -1, -1, -1, -1, -1, -1, -1, -1, -1, -1, -1, -1, -1, -1, -1, -1, -1, -1, -1, -1, -1, -1, -1, -1, -1, -1, -1], "loss_changes": [0.0, 0.0, 0.0, 0.0, 0.0, 0.0, 0.0, 0.0, 0.0, 0.0, 0.0, 0.0, 0.0, 0.0, 0.0, 0.0, 0.0, 0.0, 0.0, 0.0, 0.0, 0.0, 0.0, 0.0, 0.0, 0.0, 0.0, 0.0, 0.0, 0.0, 0.0, 0.0, 0.0, 0.0, 0.0, 0.0, 0.0, 0.0, 0.0, 0.0, 0.0, 0.0, 0.0, 0.0, 0.0, 0.0, 0.0, 0.0, 0.0, 0.0, 0.0, 0.0, 0.0, 0.0, 0.0, 0.0, 0.0, 0.0, 0.0, 0.0, 0.0, 0.0, 0.0], "parents": [2147483647, 0, 0, 1, 1, 2, 2, 3, 3, 4, 4, 5, 5, 6, 6, 7, 7, 8, 8, 9, 9, 10, 10, 11, 11, 12, 12, 13, 13, 14, 14, 15, 15, 16, 16, 17, 17, 18, 18, 19, 19, 20, 20, 21, 21, 22, 22, 23, 23, 24, 24, 25, 25, 26, 26, 27, 27, 28, 28, 29, 29, 30, 30], "right_children": [2, 4, 6, 8, 10, 12, 14, 16, 18, 20, 22, 24, 26, 28, 30, 32, 34, 36, 38, 40, 42, 44, 46, 48, 50, 52, 54, 56, 58, 60, 62, -1, -1, -1, -1, -1, -1, -1, -1, -1, -1, -1, -1, -1, -1, -1, -1, -1, -1, -1, -1, -1, -1, -1, -1, -1, -1, -1, -1, -1, -1, -1, -1], "split_conditions": [287.5, 0.5, 0.5, 0.5, 163.5, 0.5, 731.5, 0.5, 173.5, 0.5, 3736.5, 0.5, 57.5, 475.5, 0.5, 0.5, 164.5, 33.5, 2.5, 29.5, 1387.0, 199.5, 188.0, 605.5, 60.5, 421.5, 2936.5, 0.5, 0.5, -349.5, 790.0, -0.05851154971959478, 0.11289609025288401, 0.010322911506258503, 0.2427841182599867, -0.033891479107802325, 0.08627365335941829, 0.12624408514538976, -0.021156869474532415, 0.019019525511884947, -0.1494387466280706, -0.0074487397403959115, 0.20629089140120493, 0.08507570845115414, 0.013855289583594985, 0.01615861545048445, -0.14370418095804874, 0.024427319245894294, 0.04442978706364899, 0.1810004888185549, 0.03435063049257797, 0.24135267562917906, 0.1086422679785857, -0.026039625353442283, 0.18556501380742088, -0.08649929607336503, 0.3268447601095368, 0.04361985380381865, -0.023955621791904875, -0.1730423864900001, 0.07185881212134228, -0.011944560042751575, 0.047750567545996186], "split_indices": [3, 49, 34, 42, 3, 41, 3, 15, 3, 46, 1, 46, 0, 3, 20, 46, 3, 0, 6, 2, 1, 5, 5, 3, 0, 3, 1, 45, 43, 1, 1, 0, 0, 0, 0, 0, 0, 0, 0, 0, 0, 0, 0, 0, 0, 0, 0, 0, 0, 0, 0, 0, 0, 0, 0, 0, 0, 0, 0, 0, 0, 0, 0], "split_type": [0, 0, 0, 0, 0, 0, 0, 0, 0, 0, 0, 0, 0, 0, 0, 0, 0, 0, 0, 0, 0, 0, 0, 0, 0, 0, 0, 0, 0, 0, 0, 0, 0, 0, 0, 0, 0, 0, 0, 0, 0, 0, 0, 0, 0, 0, 0, 0, 0, 0, 0, 0, 0, 0, 0, 0, 0, 0, 0, 0, 0, 0, 0], "sum_hessian": [0.0, 0.0, 0.0, 0.0, 0.0, 0.0, 0.0, 0.0, 0.0, 0.0, 0.0, 0.0, 0.0, 0.0, 0.0, 0.0, 0.0, 0.0, 0.0, 0.0, 0.0, 0.0, 0.0, 0.0, 0.0, 0.0, 0.0, 0.0, 0.0, 0.0, 0.0, 0.0, 0.0, 0.0, 0.0, 0.0, 0.0, 0.0, 0.0, 0.0, 0.0, 0.0, 0.0, 0.0, 0.0, 0.0, 0.0, 0.0, 0.0, 0.0, 0.0, 0.0, 0.0, 0.0, 0.0, 0.0, 0.0, 0.0, 0.0, 0.0, 0.0, 0.0, 0.0], "tree_param": {"num_deleted": "0", "num_feature": "51", "num_nodes": "63", "size_leaf_vector": "0"}}, {"base_weights": [-0.001768816186599043, -0.028160556969154833, 0.03131582664499663, -0.03043286760417616, 0.07346853618215039, 0.05324661238468004, -0.024587792820133465, -0.04554018562197945, -0.020919323404808468, 0.08555856340869729, -0.1562419811222417, 0.04622640828226661, 0.2877842969047264, -0.047213807150638325, 0.04160115535157258, -0.04487438560016538, -0.10306683808155234, -0.0233528899609705, 0.1515597062632399, 0.02099140586480369, 0.13344587192041837, -0.06308619567623129, -0.5754430156292882, 0.040534597216250294, 0.2846064341926765, 0.3007483719003652, -0.13354814045354474, -0.04829088886565987, 0.6776621870589785, 0.014401083897059526, 0.09516005893726374, -0.9882193571186269, -0.7533269268844991, -1.1367822968568035, -0.003218774391251795, -0.5107767268650465, 0.7464968864386873, 0.062045015990666044, 2.018816518430033, 2.397341363094146, 0.07163669061948631, 0.47911524449199955, 1.5473804241857394, -0.5035820822244749, 2.7079935900682472, -2.578270758736056, -2.2910284974890245, 0.26720553264848446, 1.9068361462288748, 1.6701082074277322, 0.5435510337443444, 1.6144959245105992, -1.8123132475551713, -1.3432385191661709, 2.3831105085190205, -0.855337543539614, 3.943800182785812, 3.8191627190179545, 2.4463467140699287, 0.3671923549525064, -0.129106020703119, 0.37874775766010743, 0.7010110517737387], "categories": [], "categories_nodes": [], "categories_segments": [], "categories_sizes": [], "default_left": [1, 1, 1, 1, 1, 1, 1, 1, 1, 1, 1, 1, 1, 1, 1, 1, 1, 1, 1, 1, 1, 1, 1, 1, 1, 1, 1, 1, 1, 1, 1, 0, 0, 0, 0, 0, 0, 0, 0, 0, 0, 0, 0, 0, 0, 0, 0, 0, 0, 0, 0, 0, 0, 0, 0, 0, 0, 0, 0, 0, 0, 0, 0], "id": 13, "left_children": [1, 3, 5, 7, 9, 11, 13, 15, 17, 19, 21, 23, 25, 27, 29, 31, 33, 35, 37, 39, 41, 43, 45, 47, 49, 51, 53, 55, 57, 59, 61, -1, -1, -1, -1, -1, -1, -1, -1, -1, -1, -1, -1, -1, -1, -1, -1, -1, -1, -1, -1, -1, -1, -1, -1, -1, -1, -1, -1, -1, -1, -1, -1], "loss_changes": [0.0, 0.0, 0.0, 0.0, 0.0, 0.0, 0.0, 0.0, 0.0, 0.0, 0.0, 0.0, 0.0, 0.0, 0.0, 0.0, 0.0, 0.0, 0.0, 0.0, 0.0, 0.0, 0.0, 0.0, 0.0, 0.0, 0.0, 0.0, 0.0, 0.0, 0.0, 0.0, 0.0, 0.0, 0.0, 0.0, 0.0, 0.0, 0.0, 0.0, 0.0, 0.0, 0.0, 0.0, 0.0, 0.0, 0.0, 0.0, 0.0, 0.0, 0.0, 0.0, 0.0, 0.0, 0.0, 0.0, 0.0, 0.0, 0.0, 0.0, 0.0, 0.0, 0.0], "parents": [2147483647, 0, 0, 1, 1, 2, 2, 3, 3, 4, 4, 5, 5, 6, 6, 7, 7, 8, 8, 9, 9, 10, 10, 11, 11, 12, 12, 13, 13, 14, 14, 15, 15, 16, 16, 17, 17, 18, 18, 19, 19, 20, 20, 21, 21, 22, 22, 23, 23, 24, 24, 25, 25, 26, 26, 27, 27, 28, 28, 29, 29, 30, 30], "right_children": [2, 4, 6, 8, 10, 12, 14, 16, 18, 20, 22, 24, 26, 28, 30, 32, 34, 36, 38, 40, 42, 44, 46, 48, 50, 52, 54, 56, 58, 60, 62, -1, -1, -1, -1, -1, -1, -1, -1, -1, -1, -1, -1, -1, -1, -1, -1, -1, -1, -1, -1, -1, -1, -1, -1, -1, -1, -1, -1, -1, -1, -1, -1], "split_conditions": [203.5, 0.5, 0.5, 92.5, 0.5, 0.5, 499.0, 0.5, 0.5, 127.5, 188.0, 0.5, 69.0, 0.5, 0.5, 77.5, 0.5, 0.5, 20.5, 23.5, 0.5, 0.5, 1.5, 373.5, 61.5, 541.0, 6532.5, 0.5, 46.5, 0.5, 873.5, -0.10284432581898516, -0.07935508279557238, -0.11770061979280283, -0.0043442675462476476, -0.055100062793627114, 0.07062729853674626, 0.002182111491944137, 0.19785926173588084, 0.23571174620229213, 0.0031412789548261634, 0.04388913434207749, 0.15071565231145148, -0.05438059832956996, 0.26677696889970226, -0.26184946598072806, -0.23312523985602493, 0.02269816315772598, 0.18666122451576503, 0.16298843063565077, 0.05033271326731198, 0.15742720234393748, -0.1852537148626396, -0.13834624202373955, 0.2342886607447796, -0.08955614446108387, 0.39035762817145875, 0.377893881794673, 0.24061228129987042, 0.03269684538812817, -0.016932992177434367, 0.033852385658888276, 0.06607871507025141], "split_indices": [3, 49, 34, 3, 22, 41, 3, 45, 45, 3, 3, 46, 0, 45, 41, 3, 19, 35, 2, 0, 8, 46, 6, 5, 0, 5, 1, 35, 0, 20, 3, 0, 0, 0, 0, 0, 0, 0, 0, 0, 0, 0, 0, 0, 0, 0, 0, 0, 0, 0, 0, 0, 0, 0, 0, 0, 0, 0, 0, 0, 0, 0, 0], "split_type": [0, 0, 0, 0, 0, 0, 0, 0, 0, 0, 0, 0, 0, 0, 0, 0, 0, 0, 0, 0, 0, 0, 0, 0, 0, 0, 0, 0, 0, 0, 0, 0, 0, 0, 0, 0, 0, 0, 0, 0, 0, 0, 0, 0, 0, 0, 0, 0, 0, 0, 0, 0, 0, 0, 0, 0, 0, 0, 0, 0, 0, 0, 0], "sum_hessian": [0.0, 0.0, 0.0, 0.0, 0.0, 0.0, 0.0, 0.0, 0.0, 0.0, 0.0, 0.0, 0.0, 0.0, 0.0, 0.0, 0.0, 0.0, 0.0, 0.0, 0.0, 0.0, 0.0, 0.0, 0.0, 0.0, 0.0, 0.0, 0.0, 0.0, 0.0, 0.0, 0.0, 0.0, 0.0, 0.0, 0.0, 0.0, 0.0, 0.0, 0.0, 0.0, 0.0, 0.0, 0.0, 0.0, 0.0, 0.0, 0.0, 0.0, 0.0, 0.0, 0.0, 0.0, 0.0, 0.0, 0.0, 0.0, 0.0, 0.0, 0.0, 0.0, 0.0], "tree_param": {"num_deleted": "0", "num_feature": "51", "num_nodes": "63", "size_leaf_vector": "0"}}, {"base_weights": [-0.001690388012508748, -0.025460357467243126, 0.028107606595244243, -0.02750783832742021, 0.06611322400418751, 0.06472526354868066, -0.000885630327137796, -0.028715691236566383, 0.09072821529110943, 0.07557154488142058, -0.18453227924248977, 0.05362792097825227, 0.2753246914274849, -0.013567196324192357, 0.08277613415555064, -0.0314618328653458, 0.014614686453085269, 0.116723705603362, -0.1296145121175086, 0.015945249677503603, 0.12128503787109025, -0.22794877967292831, 1.8751707362202383, 0.028831024690636094, 0.16431901357113998, 0.16409419393730124, 0.3719195971426451, -0.016373423351450214, 0.3599512976486808, 0.5549301630269194, 0.0791441800873095, -0.7049956955052669, 0.2526439380422804, -0.5840290683963921, 5.486714214681334, 0.45656124271524584, 1.415537733329974, 0.054702768507469836, -1.566223733549512, -0.36520892355801876, 0.3565493723930644, 0.6397749898560792, -0.09773488617446459, -1.2332854811151563, 1.7598926070378118, -0.133022298625255, 0.41812847726152486, 0.9052215584595718, -0.16302598636657867, -0.766118700379295, 1.0964813899268193, 1.901269808841375, -0.41496755750267694, -0.2076553050616714, 1.6112258432697337, 1.8773887390463804, -2.1326023911742507, 2.910888031844249, -1.2768233087397163, 0.1444346828121649, 0.4171391353731783], "categories": [], "categories_nodes": [], "categories_segments": [], "categories_sizes": [], "default_left": [1, 1, 1, 1, 1, 1, 1, 1, 1, 1, 1, 1, 1, 1, 1, 1, 1, 1, 1, 1, 1, 1, 0, 1, 1, 1, 1, 1, 1, 1, 1, 0, 0, 0, 0, 0, 0, 0, 0, 0, 0, 0, 0, 0, 0, 0, 0, 0, 0, 0, 0, 0, 0, 0, 0, 0, 0, 0, 0, 0, 0], "id": 14, "left_children": [1, 3, 5, 7, 9, 11, 13, 15, 17, 19, 21, 23, 25, 27, 29, 31, 33, 35, 37, 39, 41, 43, -1, 45, 47, 49, 51, 53, 55, 57, 59, -1, -1, -1, -1, -1, -1, -1, -1, -1, -1, -1, -1, -1, -1, -1, -1, -1, -1, -1, -1, -1, -1, -1, -1, -1, -1, -1, -1, -1, -1], "loss_changes": [0.0, 0.0, 0.0, 0.0, 0.0, 0.0, 0.0, 0.0, 0.0, 0.0, 0.0, 0.0, 0.0, 0.0, 0.0, 0.0, 0.0, 0.0, 0.0, 0.0, 0.0, 0.0, 0.0, 0.0, 0.0, 0.0, 0.0, 0.0, 0.0, 0.0, 0.0, 0.0, 0.0, 0.0, 0.0, 0.0, 0.0, 0.0, 0.0, 0.0, 0.0, 0.0, 0.0, 0.0, 0.0, 0.0, 0.0, 0.0, 0.0, 0.0, 0.0, 0.0, 0.0, 0.0, 0.0, 0.0, 0.0, 0.0, 0.0, 0.0, 0.0], "parents": [2147483647, 0, 0, 1, 1, 2, 2, 3, 3, 4, 4, 5, 5, 6, 6, 7, 7, 8, 8, 9, 9, 10, 10, 11, 11, 12, 12, 13, 13, 14, 14, 15, 15, 16, 16, 17, 17, 18, 18, 19, 19, 20, 20, 21, 21, 23, 23, 24, 24, 25, 25, 26, 26, 27, 27, 28, 28, 29, 29, 30, 30], "right_children": [2, 4, 6, 8, 10, 12, 14, 16, 18, 20, 22, 24, 26, 28, 30, 32, 34, 36, 38, 40, 42, 44, -1, 46, 48, 50, 52, 54, 56, 58, 60, -1, -1, -1, -1, -1, -1, -1, -1, -1, -1, -1, -1, -1, -1, -1, -1, -1, -1, -1, -1, -1, -1, -1, -1, -1, -1, -1, -1, -1, -1], "split_conditions": [203.5, 0.5, 0.5, 0.5, 68.5, 0.5, 708.5, 0.5, 2.5, 127.5, 0.5, 27.5, 20.5, 374.5, 710.5, 0.5, 9.5, 173.5, 179.0, 0.5, 0.5, 89.0, 0.1834946835149014, 291.5, 0.5, 22.5, 285.5, 0.5, 0.5, 7.0, 827.5, -0.07452195965764916, 0.021242003697105574, -0.06242529694676169, 0.544649031361011, 0.04163373416440212, 0.13753138322587494, 0.001447886743624516, -0.16064476346207368, -0.04054328246292435, 0.03163254713218397, 0.05995510887848546, -0.013795878724568927, -0.1273509382186381, 0.17196687059665872, -0.01732461996964797, 0.03779045761903002, 0.08649976573883472, -0.020324988743780335, -0.08063426014505197, 0.10562574888555948, 0.18610459077701505, -0.04551914585739017, -0.024787920613289608, 0.1571001942198509, 0.1837164837975156, -0.21728262922454755, 0.28706641307730246, -0.1317047209810941, 0.010421078174094022, 0.03769152343019537], "split_indices": [3, 49, 29, 42, 0, 35, 3, 38, 6, 3, 44, 5, 2, 5, 3, 35, 2, 3, 3, 28, 16, 0, 0, 1, 31, 1, 5, 45, 42, 4, 3, 0, 0, 0, 0, 0, 0, 0, 0, 0, 0, 0, 0, 0, 0, 0, 0, 0, 0, 0, 0, 0, 0, 0, 0, 0, 0, 0, 0, 0, 0], "split_type": [0, 0, 0, 0, 0, 0, 0, 0, 0, 0, 0, 0, 0, 0, 0, 0, 0, 0, 0, 0, 0, 0, 0, 0, 0, 0, 0, 0, 0, 0, 0, 0, 0, 0, 0, 0, 0, 0, 0, 0, 0, 0, 0, 0, 0, 0, 0, 0, 0, 0, 0, 0, 0, 0, 0, 0, 0, 0, 0, 0, 0], "sum_hessian": [0.0, 0.0, 0.0, 0.0, 0.0, 0.0, 0.0, 0.0, 0.0, 0.0, 0.0, 0.0, 0.0, 0.0, 0.0, 0.0, 0.0, 0.0, 0.0, 0.0, 0.0, 0.0, 0.0, 0.0, 0.0, 0.0, 0.0, 0.0, 0.0, 0.0, 0.0, 0.0, 0.0, 0.0, 0.0, 0.0, 0.0, 0.0, 0.0, 0.0, 0.0, 0.0, 0.0, 0.0, 0.0, 0.0, 0.0, 0.0, 0.0, 0.0, 0.0, 0.0, 0.0, 0.0, 0.0, 0.0, 0.0, 0.0, 0.0, 0.0, 0.0], "tree_param": {"num_deleted": "0", "num_feature": "51", "num_nodes": "61", "size_leaf_vector": "0"}}, {"base_weights": [-0.0016268263337347688, -0.01480261098289533, 0.04327682584718862, -0.03180814661057678, 0.006540707644009947, 0.0598042427254333, -4.017717129894813e-05, -0.03291300932685435, 0.16248447309836753, -0.007658568224150527, 0.09048581347327889, 0.07367305629627405, -0.001410702862543181, -0.01983160360578024, 0.06559196268095242, -0.03374471031686467, 0.20909628629446983, 0.014496777370602194, 0.37624447803847294, -0.015430714791291131, 0.19867678258817034, 0.020788667455995606, 0.14734401154001137, 0.054025436496995524, 0.12659124509204137, -0.029762441430818413, 0.12652829831489967, -0.02068449026148128, 0.7217533435263686, 0.13099489818835505, 0.01841607477397341, -0.6906450039507751, 1.1174392175633108, 1.0274405214532953, 4.989645154983333, 1.2483146680076824, -1.0112249819485928, 1.0496100389612897, 2.7298103818353607, 1.6139085742916877, -0.3223176046569179, 0.1353679055247431, 1.8535471035407824, -0.06203944143137032, 0.5369568860808847, 0.8150250617788936, 1.5499433998314436, 1.4203115246934856, 0.2714024866724059, 0.9022376927808338, 0.4706082321190374, -0.2451506941134776, 0.5935303169730307, 2.0750256560307254, 0.41882222200515146, -0.6976754769840012, 0.057011713301031, 3.593933572009577, 3.593933572009577, 3.1069691645742337, 0.49089207329168716, -0.11117757487715413, 0.4010958194323475], "categories": [], "categories_nodes": [], "categories_segments": [], "categories_sizes": [], "default_left": [1, 1, 1, 1, 1, 1, 1, 1, 1, 1, 1, 1, 1, 1, 1, 1, 1, 1, 1, 1, 1, 1, 1, 1, 1, 1, 1, 1, 1, 1, 1, 0, 0, 0, 0, 0, 0, 0, 0, 0, 0, 0, 0, 0, 0, 0, 0, 0, 0, 0, 0, 0, 0, 0, 0, 0, 0, 0, 0, 0, 0, 0, 0], "id": 15, "left_children": [1, 3, 5, 7, 9, 11, 13, 15, 17, 19, 21, 23, 25, 27, 29, 31, 33, 35, 37, 39, 41, 43, 45, 47, 49, 51, 53, 55, 57, 59, 61, -1, -1, -1, -1, -1, -1, -1, -1, -1, -1, -1, -1, -1, -1, -1, -1, -1, -1, -1, -1, -1, -1, -1, -1, -1, -1, -1, -1, -1, -1, -1, -1], "loss_changes": [0.0, 0.0, 0.0, 0.0, 0.0, 0.0, 0.0, 0.0, 0.0, 0.0, 0.0, 0.0, 0.0, 0.0, 0.0, 0.0, 0.0, 0.0, 0.0, 0.0, 0.0, 0.0, 0.0, 0.0, 0.0, 0.0, 0.0, 0.0, 0.0, 0.0, 0.0, 0.0, 0.0, 0.0, 0.0, 0.0, 0.0, 0.0, 0.0, 0.0, 0.0, 0.0, 0.0, 0.0, 0.0, 0.0, 0.0, 0.0, 0.0, 0.0, 0.0, 0.0, 0.0, 0.0, 0.0, 0.0, 0.0, 0.0, 0.0, 0.0, 0.0, 0.0, 0.0], "parents": [2147483647, 0, 0, 1, 1, 2, 2, 3, 3, 4, 4, 5, 5, 6, 6, 7, 7, 8, 8, 9, 9, 10, 10, 11, 11, 12, 12, 13, 13, 14, 14, 15, 15, 16, 16, 17, 17, 18, 18, 19, 19, 20, 20, 21, 21, 22, 22, 23, 23, 24, 24, 25, 25, 26, 26, 27, 27, 28, 28, 29, 29, 30, 30], "right_children": [2, 4, 6, 8, 10, 12, 14, 16, 18, 20, 22, 24, 26, 28, 30, 32, 34, 36, 38, 40, 42, 44, 46, 48, 50, 52, 54, 56, 58, 60, 62, -1, -1, -1, -1, -1, -1, -1, -1, -1, -1, -1, -1, -1, -1, -1, -1, -1, -1, -1, -1, -1, -1, -1, -1, -1, -1, -1, -1, -1, -1, -1, -1], "split_conditions": [340.5, 0.5, 0.5, 0.5, 25.0, 0.5, 731.5, 60.5, 179.0, 0.5, 163.5, 1612.5, 825.5, 0.5, 0.5, 383.0, 0.5, 101.5, 8.5, 25.5, 103.5, 125.5, 0.5, 24.5, 1.5, 0.5, -171.0, 475.5, 1378.0, 737.0, 790.0, -0.07308689050219998, 0.10772153164920861, 0.09872166203820708, 0.49494212539121085, 0.12080907669364578, -0.10514488830198175, 0.10093861378900651, 0.2689586480764136, 0.15736846732204632, -0.03625415057281425, 0.009514400445351841, 0.18133232024695578, -0.0102263342502595, 0.049673298500965996, 0.0774801160707669, 0.15097194987602192, 0.13800876236222612, 0.023117858560118124, 0.08620137917096092, 0.04303843310478128, -0.02853745951847023, 0.05533064159018061, 0.2034801754959501, 0.03785983209339268, -0.07378993780552259, 0.001678781222980632, 0.35537096709383525, 0.35537096709383525, 0.3066745263503009, 0.04506681722204625, -0.015140147594837882, 0.03608719183611228], "split_indices": [3, 28, 34, 46, 5, 8, 3, 0, 3, 35, 3, 1, 3, 38, 20, 5, 36, 5, 2, 0, 3, 3, 15, 0, 4, 36, 1, 3, 1, 3, 1, 0, 0, 0, 0, 0, 0, 0, 0, 0, 0, 0, 0, 0, 0, 0, 0, 0, 0, 0, 0, 0, 0, 0, 0, 0, 0, 0, 0, 0, 0, 0, 0], "split_type": [0, 0, 0, 0, 0, 0, 0, 0, 0, 0, 0, 0, 0, 0, 0, 0, 0, 0, 0, 0, 0, 0, 0, 0, 0, 0, 0, 0, 0, 0, 0, 0, 0, 0, 0, 0, 0, 0, 0, 0, 0, 0, 0, 0, 0, 0, 0, 0, 0, 0, 0, 0, 0, 0, 0, 0, 0, 0, 0, 0, 0, 0, 0], "sum_hessian": [0.0, 0.0, 0.0, 0.0, 0.0, 0.0, 0.0, 0.0, 0.0, 0.0, 0.0, 0.0, 0.0, 0.0, 0.0, 0.0, 0.0, 0.0, 0.0, 0.0, 0.0, 0.0, 0.0, 0.0, 0.0, 0.0, 0.0, 0.0, 0.0, 0.0, 0.0, 0.0, 0.0, 0.0, 0.0, 0.0, 0.0, 0.0, 0.0, 0.0, 0.0, 0.0, 0.0, 0.0, 0.0, 0.0, 0.0, 0.0, 0.0, 0.0, 0.0, 0.0, 0.0, 0.0, 0.0, 0.0, 0.0, 0.0, 0.0, 0.0, 0.0, 0.0, 0.0], "tree_param": {"num_deleted": "0", "num_feature": "51", "num_nodes": "63", "size_leaf_vector": "0"}}, {"base_weights": [-0.001549468990695648, -0.021462221991929268, 0.02341312541591954, -0.022715131683247968, 0.09238664950239557, 0.0409826584203611, -0.021373253828262714, -0.03155969187925255, -0.00842526129295876, 0.10867205965168991, -0.2876062539811353, 0.03487276081607382, 0.2451079539044904, -0.04054383017882376, 0.028311885672834658, -0.033520641887381325, -0.0011662828270659147, -0.01136726681831928, 0.15566839017379572, 0.14120588673176676, -0.09438389557223797, -0.2371386112333285, -0.4642430035984593, 0.030223239602035636, 0.22960040982240265, 0.2741287892018009, 0.07572103767937126, -0.041521378171287836, 0.5964264417109392, 0.005649625270539556, 0.07407117406308036, 0.24545504784778877, -0.8057123563388451, -0.6573353607126295, 2.514788626405853, -0.6337847757350952, 0.18946207207011773, 2.2284772566140814, 0.4306005125712089, -0.7704726377537323, 0.8882915764091504, -0.6840066334316113, 3.9028140150877237, -1.396771891852454, -1.1725633126025206, -1.9351285567756757, -1.8026057978594179, 0.183842323675476, 1.202104126211299, 0.7967457601979747, 1.6463806455654988, 1.613462056764737, 0.620736249191843, -0.8692521637904738, 0.8264538713814947, -0.8571766848504221, 2.8108242349360917, 2.2321734884216995, 3.014261115610141, 0.058522061604754004, -1.8488047491439594, 0.4857641935527944, -0.6752054474340226], "categories": [], "categories_nodes": [], "categories_segments": [], "categories_sizes": [], "default_left": [1, 1, 1, 1, 1, 1, 1, 1, 1, 1, 1, 1, 1, 1, 1, 1, 1, 1, 1, 1, 1, 1, 1, 1, 1, 1, 1, 1, 1, 1, 1, 0, 0, 0, 0, 0, 0, 0, 0, 0, 0, 0, 0, 0, 0, 0, 0, 0, 0, 0, 0, 0, 0, 0, 0, 0, 0, 0, 0, 0, 0, 0, 0], "id": 16, "left_children": [1, 3, 5, 7, 9, 11, 13, 15, 17, 19, 21, 23, 25, 27, 29, 31, 33, 35, 37, 39, 41, 43, 45, 47, 49, 51, 53, 55, 57, 59, 61, -1, -1, -1, -1, -1, -1, -1, -1, -1, -1, -1, -1, -1, -1, -1, -1, -1, -1, -1, -1, -1, -1, -1, -1, -1, -1, -1, -1, -1, -1, -1, -1], "loss_changes": [0.0, 0.0, 0.0, 0.0, 0.0, 0.0, 0.0, 0.0, 0.0, 0.0, 0.0, 0.0, 0.0, 0.0, 0.0, 0.0, 0.0, 0.0, 0.0, 0.0, 0.0, 0.0, 0.0, 0.0, 0.0, 0.0, 0.0, 0.0, 0.0, 0.0, 0.0, 0.0, 0.0, 0.0, 0.0, 0.0, 0.0, 0.0, 0.0, 0.0, 0.0, 0.0, 0.0, 0.0, 0.0, 0.0, 0.0, 0.0, 0.0, 0.0, 0.0, 0.0, 0.0, 0.0, 0.0, 0.0, 0.0, 0.0, 0.0, 0.0, 0.0, 0.0, 0.0], "parents": [2147483647, 0, 0, 1, 1, 2, 2, 3, 3, 4, 4, 5, 5, 6, 6, 7, 7, 8, 8, 9, 9, 10, 10, 11, 11, 12, 12, 13, 13, 14, 14, 15, 15, 16, 16, 17, 17, 18, 18, 19, 19, 20, 20, 21, 21, 22, 22, 23, 23, 24, 24, 25, 25, 26, 26, 27, 27, 28, 28, 29, 29, 30, 30], "right_children": [2, 4, 6, 8, 10, 12, 14, 16, 18, 20, 22, 24, 26, 28, 30, 32, 34, 36, 38, 40, 42, 44, 46, 48, 50, 52, 54, 56, 58, 60, 62, -1, -1, -1, -1, -1, -1, -1, -1, -1, -1, -1, -1, -1, -1, -1, -1, -1, -1, -1, -1, -1, -1, -1, -1, -1, -1, -1, -1, -1, -1, -1, -1], "split_conditions": [203.5, 0.5, 0.5, 129.5, 5.5, 0.5, 475.5, 0.5, 0.5, 3.5, 0.5, 0.5, 57.5, 0.5, 0.5, 24.5, 10.5, 0.5, 0.5, 79.0, 0.5, 3.5, 16.5, 0.5, 0.5, 0.5, 4.5, 0.5, 0.5, 2132.0, 6404.5, 0.02052311467765641, -0.08459362574100698, -0.06975592617838543, 0.24745647253346287, -0.06740086768063198, 0.014923817099889308, 0.21882533555428568, 0.03903766114999843, -0.0810696538824957, 0.08480676753379257, -0.07242305345028359, 0.3862590114016499, -0.14369957929236787, -0.12127872136737453, -0.19753524578469006, -0.18428296989306425, 0.014361842260425133, 0.11618802251400745, 0.07565218591267502, 0.16061567444942743, 0.15732381556935127, 0.05805123481206184, -0.09094760648616984, 0.07862299703102701, -0.08974005859216468, 0.2770600333864867, 0.2191949587350475, 0.29740372145389166, 0.001829816053352933, -0.18890286502151843, 0.044554029248156976, -0.07154293485052472], "split_indices": [3, 42, 34, 3, 6, 41, 3, 38, 45, 4, 33, 46, 0, 45, 41, 0, 2, 28, 32, 3, 19, 4, 2, 15, 21, 49, 2, 38, 23, 3, 1, 0, 0, 0, 0, 0, 0, 0, 0, 0, 0, 0, 0, 0, 0, 0, 0, 0, 0, 0, 0, 0, 0, 0, 0, 0, 0, 0, 0, 0, 0, 0, 0], "split_type": [0, 0, 0, 0, 0, 0, 0, 0, 0, 0, 0, 0, 0, 0, 0, 0, 0, 0, 0, 0, 0, 0, 0, 0, 0, 0, 0, 0, 0, 0, 0, 0, 0, 0, 0, 0, 0, 0, 0, 0, 0, 0, 0, 0, 0, 0, 0, 0, 0, 0, 0, 0, 0, 0, 0, 0, 0, 0, 0, 0, 0, 0, 0], "sum_hessian": [0.0, 0.0, 0.0, 0.0, 0.0, 0.0, 0.0, 0.0, 0.0, 0.0, 0.0, 0.0, 0.0, 0.0, 0.0, 0.0, 0.0, 0.0, 0.0, 0.0, 0.0, 0.0, 0.0, 0.0, 0.0, 0.0, 0.0, 0.0, 0.0, 0.0, 0.0, 0.0, 0.0, 0.0, 0.0, 0.0, 0.0, 0.0, 0.0, 0.0, 0.0, 0.0, 0.0, 0.0, 0.0, 0.0, 0.0, 0.0, 0.0, 0.0, 0.0, 0.0, 0.0, 0.0, 0.0, 0.0, 0.0, 0.0, 0.0, 0.0, 0.0, 0.0, 0.0], "tree_param": {"num_deleted": "0", "num_feature": "51", "num_nodes": "63", "size_leaf_vector": "0"}}, {"base_weights": [-0.001479486623472143, -0.007886180324331683, 0.06211904558885209, -0.010906812488326647, 0.10423463953552416, 0.05193573020730368, 0.14158140550764056, -0.012801703051744, 0.16710606688026824, 0.0032555999131021127, 0.1312613824932902, 0.08065796835902012, 0.029646438857122006, -0.18953924366695532, 0.15533988123511688, -0.014859022150334857, 0.13911891010093078, 0.04682320719349689, 0.2590500329235594, -0.0054827790440317254, 0.5246455443554219, 0.17351710535576287, 0.03924658411052241, 0.09510546112600815, -0.06595267563293865, 0.02152501213793706, 0.16425476681978346, -0.23753806379849118, 1.9321589551489733, 0.16878448152412226, -0.20456172650133392, -0.2549483097912266, 1.6005046419591733, 0.05415268581981199, 1.328397666973716, -0.8123348872429946, 1.0275009765768215, 0.8001489687735025, 1.691655118862965, -0.40082561414733014, 0.8285904024098945, -1.104351329675786, 6.042245968383932, 1.0807335335056067, 0.48284331569338873, 0.06067083308122216, 0.8219625634679085, 0.10894952961068453, 0.5183896439217313, -0.13397136040272428, -1.363169253025386, -0.005723944133119695, 0.2575294812122106, 0.23720636000219716, 1.9487570636131581, -0.03961946411742472, -1.605642728391785, 0.7705244914235718, -0.9286241935875355, 2.060960702399392, -1.3894538342724148], "categories": [], "categories_nodes": [], "categories_segments": [], "categories_sizes": [], "default_left": [1, 1, 1, 1, 1, 1, 1, 1, 1, 1, 1, 1, 1, 1, 1, 1, 1, 1, 1, 1, 1, 1, 1, 1, 1, 1, 1, 1, 0, 1, 1, 0, 0, 0, 0, 0, 0, 0, 0, 0, 0, 0, 0, 0, 0, 0, 0, 0, 0, 0, 0, 0, 0, 0, 0, 0, 0, 0, 0, 0, 0], "id": 17, "left_children": [1, 3, 5, 7, 9, 11, 13, 15, 17, 19, 21, 23, 25, 27, 29, 31, 33, 35, 37, 39, 41, 43, 45, 47, 49, 51, 53, 55, -1, 57, 59, -1, -1, -1, -1, -1, -1, -1, -1, -1, -1, -1, -1, -1, -1, -1, -1, -1, -1, -1, -1, -1, -1, -1, -1, -1, -1, -1, -1, -1, -1], "loss_changes": [0.0, 0.0, 0.0, 0.0, 0.0, 0.0, 0.0, 0.0, 0.0, 0.0, 0.0, 0.0, 0.0, 0.0, 0.0, 0.0, 0.0, 0.0, 0.0, 0.0, 0.0, 0.0, 0.0, 0.0, 0.0, 0.0, 0.0, 0.0, 0.0, 0.0, 0.0, 0.0, 0.0, 0.0, 0.0, 0.0, 0.0, 0.0, 0.0, 0.0, 0.0, 0.0, 0.0, 0.0, 0.0, 0.0, 0.0, 0.0, 0.0, 0.0, 0.0, 0.0, 0.0, 0.0, 0.0, 0.0, 0.0, 0.0, 0.0, 0.0, 0.0], "parents": [2147483647, 0, 0, 1, 1, 2, 2, 3, 3, 4, 4, 5, 5, 6, 6, 7, 7, 8, 8, 9, 9, 10, 10, 11, 11, 12, 12, 13, 13, 14, 14, 15, 15, 16, 16, 17, 17, 18, 18, 19, 19, 20, 20, 21, 21, 22, 22, 23, 23, 24, 24, 25, 25, 26, 26, 27, 27, 29, 29, 30, 30], "right_children": [2, 4, 6, 8, 10, 12, 14, 16, 18, 20, 22, 24, 26, 28, 30, 32, 34, 36, 38, 40, 42, 44, 46, 48, 50, 52, 54, 56, -1, 58, 60, -1, -1, -1, -1, -1, -1, -1, -1, -1, -1, -1, -1, -1, -1, -1, -1, -1, -1, -1, -1, -1, -1, -1, -1, -1, -1, -1, -1, -1, -1], "split_conditions": [573.5, 60.5, 0.5, 0.5, 126.0, 0.5, -39.0, 0.5, 180.5, 8.5, 91.5, 0.5, 29.5, 1498.0, 0.5, 373.5, 15.5, 7.5, 8.5, 0.5, 0.5, 73.5, 388.0, 7.5, 117.0, 875.5, 0.5, 16.0, 0.18919350540777488, 65.5, 1.5, -0.029517221086245132, 0.15602807408879488, 0.0013928784748587315, 0.12881737659024914, -0.08525587883142194, 0.09872770755055969, 0.07599250677022779, 0.16514312177917403, -0.04410495152185548, 0.07883665013386698, -0.11445752307470108, 0.6002022067312708, 0.10405096324343821, 0.0442619414622164, 0.0020446932009997483, 0.07817386623966839, 0.006872562853945986, 0.047816574285050664, -0.017419526147394896, -0.14033931540966108, -0.004594784520434437, 0.02173055801409859, 0.01969824589309725, 0.19085331625419336, -0.00798433651886494, -0.16458666294630098, 0.07303005903523473, -0.09688480946587602, 0.20207368013281676, -0.14296777353436393], "split_indices": [3, 0, 36, 46, 3, 20, 1, 45, 3, 6, 5, 44, 2, 3, 10, 5, 2, 2, 2, 24, 11, 0, 3, 2, 5, 3, 35, 2, 0, 0, 4, 0, 0, 0, 0, 0, 0, 0, 0, 0, 0, 0, 0, 0, 0, 0, 0, 0, 0, 0, 0, 0, 0, 0, 0, 0, 0, 0, 0, 0, 0], "split_type": [0, 0, 0, 0, 0, 0, 0, 0, 0, 0, 0, 0, 0, 0, 0, 0, 0, 0, 0, 0, 0, 0, 0, 0, 0, 0, 0, 0, 0, 0, 0, 0, 0, 0, 0, 0, 0, 0, 0, 0, 0, 0, 0, 0, 0, 0, 0, 0, 0, 0, 0, 0, 0, 0, 0, 0, 0, 0, 0, 0, 0], "sum_hessian": [0.0, 0.0, 0.0, 0.0, 0.0, 0.0, 0.0, 0.0, 0.0, 0.0, 0.0, 0.0, 0.0, 0.0, 0.0, 0.0, 0.0, 0.0, 0.0, 0.0, 0.0, 0.0, 0.0, 0.0, 0.0, 0.0, 0.0, 0.0, 0.0, 0.0, 0.0, 0.0, 0.0, 0.0, 0.0, 0.0, 0.0, 0.0, 0.0, 0.0, 0.0, 0.0, 0.0, 0.0, 0.0, 0.0, 0.0, 0.0, 0.0, 0.0, 0.0, 0.0, 0.0, 0.0, 0.0, 0.0, 0.0, 0.0, 0.0, 0.0, 0.0], "tree_param": {"num_deleted": "0", "num_feature": "51", "num_nodes": "61", "size_leaf_vector": "0"}}, {"base_weights": [-0.001358656217366302, -0.017102244775604056, 0.022691878571546097, -0.03295397601558859, -0.008161260419225628, 0.03810679172921968, -0.016967363669816667, -0.03446342440505785, 0.10389682738780767, -0.012205891901229407, 0.15703892723798682, 0.032577745595671545, 0.22440027542760424, -0.03604477550159857, 0.020719737415405646, -0.035987063172850935, 0.012700688763552527, -0.09635775904362759, 0.25510947428501385, 0.13151350596782968, -0.01432255664223496, 0.06168928603526047, 0.310492256048624, 0.01715112006148441, 0.07814449885271073, 0.23814794439591108, -0.1701578239628045, -0.03681599234592689, 0.4758504049210282, 0.026912580587584136, -0.11201353457495421, -0.8991836010950681, 2.1343383877721043, 2.5448858004424215, -0.5907630388573872, -1.1029585491816718, -1.1417915473845803, 1.9125245045846453, -0.4043120996517967, -0.8292378984716368, 1.8892551781131783, -0.32650422956472785, 0.6786934706664582, 0.6998767920103142, 3.040231324280052, 2.45037353429401, 11.305562650086653, 0.09963083461943557, 1.7752242853671953, 0.579225174101382, -0.12569058607904873, 1.4932652448331416, 0.5961853334993871, -1.4095220829101003, 1.8417721083943317, -0.834679825130638, 13.643012443940572, 2.048297037879121, 1.7856593286537796, 0.03389198293122706, 0.4098592400584545, -0.9501570464162153, 1.9226472584155825], "categories": [], "categories_nodes": [], "categories_segments": [], "categories_sizes": [], "default_left": [1, 1, 1, 1, 1, 1, 1, 1, 1, 1, 1, 1, 1, 1, 1, 1, 1, 1, 1, 1, 1, 1, 1, 1, 1, 1, 1, 1, 1, 1, 1, 0, 0, 0, 0, 0, 0, 0, 0, 0, 0, 0, 0, 0, 0, 0, 0, 0, 0, 0, 0, 0, 0, 0, 0, 0, 0, 0, 0, 0, 0, 0, 0], "id": 18, "left_children": [1, 3, 5, 7, 9, 11, 13, 15, 17, 19, 21, 23, 25, 27, 29, 31, 33, 35, 37, 39, 41, 43, 45, 47, 49, 51, 53, 55, 57, 59, 61, -1, -1, -1, -1, -1, -1, -1, -1, -1, -1, -1, -1, -1, -1, -1, -1, -1, -1, -1, -1, -1, -1, -1, -1, -1, -1, -1, -1, -1, -1, -1, -1], "loss_changes": [0.0, 0.0, 0.0, 0.0, 0.0, 0.0, 0.0, 0.0, 0.0, 0.0, 0.0, 0.0, 0.0, 0.0, 0.0, 0.0, 0.0, 0.0, 0.0, 0.0, 0.0, 0.0, 0.0, 0.0, 0.0, 0.0, 0.0, 0.0, 0.0, 0.0, 0.0, 0.0, 0.0, 0.0, 0.0, 0.0, 0.0, 0.0, 0.0, 0.0, 0.0, 0.0, 0.0, 0.0, 0.0, 0.0, 0.0, 0.0, 0.0, 0.0, 0.0, 0.0, 0.0, 0.0, 0.0, 0.0, 0.0, 0.0, 0.0, 0.0, 0.0, 0.0, 0.0], "parents": [2147483647, 0, 0, 1, 1, 2, 2, 3, 3, 4, 4, 5, 5, 6, 6, 7, 7, 8, 8, 9, 9, 10, 10, 11, 11, 12, 12, 13, 13, 14, 14, 15, 15, 16, 16, 17, 17, 18, 18, 19, 19, 20, 20, 21, 21, 22, 22, 23, 23, 24, 24, 25, 25, 26, 26, 27, 27, 28, 28, 29, 29, 30, 30], "right_children": [2, 4, 6, 8, 10, 12, 14, 16, 18, 20, 22, 24, 26, 28, 30, 32, 34, 36, 38, 40, 42, 44, 46, 48, 50, 52, 54, 56, 58, 60, 62, -1, -1, -1, -1, -1, -1, -1, -1, -1, -1, -1, -1, -1, -1, -1, -1, -1, -1, -1, -1, -1, -1, -1, -1, -1, -1, -1, -1, -1, -1, -1, -1], "split_conditions": [225.5, 0.5, 0.5, 0.5, 0.5, 0.5, 459.5, 0.5, 76.5, 24.5, 154.5, 1603.5, 69.0, 0.5, 6390.5, 92.0, 16.5, 21.5, 69.5, 91.0, 60.5, 0.5, 0.5, 0.5, 0.5, 421.5, 6532.5, 0.5, 46.5, 0.5, 1253.5, -0.09394075021662929, 0.20941144867008799, 0.2504661899371197, -0.0630986939928612, -0.11431824502528964, -0.1182015448455805, 0.18723006035134207, -0.044453600072302146, -0.08694617995428615, 0.18490312770419537, -0.03667281306359525, 0.06384695695952336, 0.06596528909390896, 0.30000074232088275, 0.24101496332227854, 1.1265338749015428, 0.0059406933548210895, 0.17350003842959708, 0.05390012730301573, -0.01659144871502734, 0.1453041343761917, 0.05559614324281624, -0.1449745983981325, 0.1801548207323107, -0.08749037262018627, 1.3602788542869346, 0.20080731368078963, 0.1745435427582555, -0.0006331918139997617, 0.03696353389872298, -0.099038094748744, 0.1882423357344358], "split_indices": [3, 32, 34, 45, 41, 41, 3, 44, 3, 0, 3, 1, 0, 45, 1, 0, 2, 2, 0, 3, 0, 7, 8, 37, 8, 3, 1, 48, 0, 41, 3, 0, 0, 0, 0, 0, 0, 0, 0, 0, 0, 0, 0, 0, 0, 0, 0, 0, 0, 0, 0, 0, 0, 0, 0, 0, 0, 0, 0, 0, 0, 0, 0], "split_type": [0, 0, 0, 0, 0, 0, 0, 0, 0, 0, 0, 0, 0, 0, 0, 0, 0, 0, 0, 0, 0, 0, 0, 0, 0, 0, 0, 0, 0, 0, 0, 0, 0, 0, 0, 0, 0, 0, 0, 0, 0, 0, 0, 0, 0, 0, 0, 0, 0, 0, 0, 0, 0, 0, 0, 0, 0, 0, 0, 0, 0, 0, 0], "sum_hessian": [0.0, 0.0, 0.0, 0.0, 0.0, 0.0, 0.0, 0.0, 0.0, 0.0, 0.0, 0.0, 0.0, 0.0, 0.0, 0.0, 0.0, 0.0, 0.0, 0.0, 0.0, 0.0, 0.0, 0.0, 0.0, 0.0, 0.0, 0.0, 0.0, 0.0, 0.0, 0.0, 0.0, 0.0, 0.0, 0.0, 0.0, 0.0, 0.0, 0.0, 0.0, 0.0, 0.0, 0.0, 0.0, 0.0, 0.0, 0.0, 0.0, 0.0, 0.0, 0.0, 0.0, 0.0, 0.0, 0.0, 0.0, 0.0, 0.0, 0.0, 0.0, 0.0, 0.0], "tree_param": {"num_deleted": "0", "num_feature": "51", "num_nodes": "63", "size_leaf_vector": "0"}}, {"base_weights": [-0.0013057319414816635, -0.02028451966163067, 0.015351696425087514, -0.021655813509505722, 0.05264897428600236, -0.005660069067881783, 0.04218584970804506, -0.022543818571514253, 0.07440062879012312, 0.0004560914240791046, 0.12571901029269492, -0.007158495260813267, 0.29826599836638384, 0.033208231036996404, 0.21359226034436243, -0.024621134673060086, 0.01703158647524153, 0.058414258420947295, 0.544399917643889, -0.0070745516219503785, 0.4497844598371718, 0.1815781004455642, -0.148498341366845, -0.018006808044462835, 0.034265429707323505, 0.46571329268312434, 0.1967827896895715, 0.01466378709327163, 0.1164113914752954, 0.2368827215302258, -0.04326825444830618, -0.6815814791964705, 0.19570169095641313, 1.319791891605277, -0.44118325071777087, 0.27123937845865237, 2.682911864598736, -1.3035446586565924, 3.86427917022752, -0.38867902930122394, 0.6355197121179702, 3.5820986914220274, -1.100002740438931, 1.4106373080612864, -0.7983761845330983, -1.1629772241093663, 0.9204219973292491, -0.2981803751851126, 2.62414432219256, 0.22103261329447577, -0.2787289479107475, 3.523876538181619, 1.6481850207459958, 3.4804765157094457, 0.42930888019825175, 0.08464846859016963, 1.232036659284286, 1.0413141806960715, 0.5120305548651649, 1.320488298696446, 0.0913067037432605, -0.6633618403032571, 2.878566636179442], "categories": [], "categories_nodes": [], "categories_segments": [], "categories_sizes": [], "default_left": [1, 1, 1, 1, 1, 1, 1, 1, 1, 1, 1, 1, 1, 1, 1, 1, 1, 1, 1, 1, 1, 1, 1, 1, 1, 1, 1, 1, 1, 1, 1, 0, 0, 0, 0, 0, 0, 0, 0, 0, 0, 0, 0, 0, 0, 0, 0, 0, 0, 0, 0, 0, 0, 0, 0, 0, 0, 0, 0, 0, 0, 0, 0], "id": 19, "left_children": [1, 3, 5, 7, 9, 11, 13, 15, 17, 19, 21, 23, 25, 27, 29, 31, 33, 35, 37, 39, 41, 43, 45, 47, 49, 51, 53, 55, 57, 59, 61, -1, -1, -1, -1, -1, -1, -1, -1, -1, -1, -1, -1, -1, -1, -1, -1, -1, -1, -1, -1, -1, -1, -1, -1, -1, -1, -1, -1, -1, -1, -1, -1], "loss_changes": [0.0, 0.0, 0.0, 0.0, 0.0, 0.0, 0.0, 0.0, 0.0, 0.0, 0.0, 0.0, 0.0, 0.0, 0.0, 0.0, 0.0, 0.0, 0.0, 0.0, 0.0, 0.0, 0.0, 0.0, 0.0, 0.0, 0.0, 0.0, 0.0, 0.0, 0.0, 0.0, 0.0, 0.0, 0.0, 0.0, 0.0, 0.0, 0.0, 0.0, 0.0, 0.0, 0.0, 0.0, 0.0, 0.0, 0.0, 0.0, 0.0, 0.0, 0.0, 0.0, 0.0, 0.0, 0.0, 0.0, 0.0, 0.0, 0.0, 0.0, 0.0, 0.0, 0.0], "parents": [2147483647, 0, 0, 1, 1, 2, 2, 3, 3, 4, 4, 5, 5, 6, 6, 7, 7, 8, 8, 9, 9, 10, 10, 11, 11, 12, 12, 13, 13, 14, 14, 15, 15, 16, 16, 17, 17, 18, 18, 19, 19, 20, 20, 21, 21, 22, 22, 23, 23, 24, 24, 25, 25, 26, 26, 27, 27, 28, 28, 29, 29, 30, 30], "right_children": [2, 4, 6, 8, 10, 12, 14, 16, 18, 20, 22, 24, 26, 28, 30, 32, 34, 36, 38, 40, 42, 44, 46, 48, 50, 52, 54, 56, 58, 60, 62, -1, -1, -1, -1, -1, -1, -1, -1, -1, -1, -1, -1, -1, -1, -1, -1, -1, -1, -1, -1, -1, -1, -1, -1, -1, -1, -1, -1, -1, -1, -1, -1], "split_conditions": [168.5, 60.5, 0.5, 0.5, 126.0, 0.5, 0.5, 0.5, 0.5, 8.5, 143.0, 523.5, 0.5, 27.5, 0.5, 0.5, 0.5, 8839.5, 11.5, 0.5, 2421.0, 3.5, 0.5, 0.5, 0.5, 0.5, 39.5, 0.5, 93.5, 67.5, 0.5, -0.07218053802676952, 0.015547778988518845, 0.12795679905340526, -0.04814071517889956, 0.023101547738742772, 0.26426879635275113, -0.1343768559727817, 0.38240552691562957, -0.04289029303724487, 0.05952958110467456, 0.3541874790350803, -0.11402266415101557, 0.13704134069900617, -0.0838600085604323, -0.1203201125180591, 0.08801980962580246, -0.03384042762563373, 0.25839204211213357, 0.01808087122232511, -0.03189528489819722, 0.34836526371103943, 0.16079611196747712, 0.3440252614638221, 0.038908497912702705, 0.0044424567518944955, 0.11918127582130614, 0.10010902796248469, 0.04718066537939403, 0.12802643976252212, 0.005108280267203582, -0.07035857413744817, 0.28383427351082174], "split_indices": [3, 0, 28, 42, 3, 46, 35, 35, 14, 6, 5, 3, 20, 5, 8, 38, 29, 1, 2, 24, 1, 4, 24, 37, 35, 6, 1, 42, 5, 0, 24, 0, 0, 0, 0, 0, 0, 0, 0, 0, 0, 0, 0, 0, 0, 0, 0, 0, 0, 0, 0, 0, 0, 0, 0, 0, 0, 0, 0, 0, 0, 0, 0], "split_type": [0, 0, 0, 0, 0, 0, 0, 0, 0, 0, 0, 0, 0, 0, 0, 0, 0, 0, 0, 0, 0, 0, 0, 0, 0, 0, 0, 0, 0, 0, 0, 0, 0, 0, 0, 0, 0, 0, 0, 0, 0, 0, 0, 0, 0, 0, 0, 0, 0, 0, 0, 0, 0, 0, 0, 0, 0, 0, 0, 0, 0, 0, 0], "sum_hessian": [0.0, 0.0, 0.0, 0.0, 0.0, 0.0, 0.0, 0.0, 0.0, 0.0, 0.0, 0.0, 0.0, 0.0, 0.0, 0.0, 0.0, 0.0, 0.0, 0.0, 0.0, 0.0, 0.0, 0.0, 0.0, 0.0, 0.0, 0.0, 0.0, 0.0, 0.0, 0.0, 0.0, 0.0, 0.0, 0.0, 0.0, 0.0, 0.0, 0.0, 0.0, 0.0, 0.0, 0.0, 0.0, 0.0, 0.0, 0.0, 0.0, 0.0, 0.0, 0.0, 0.0, 0.0, 0.0, 0.0, 0.0, 0.0, 0.0, 0.0, 0.0, 0.0, 0.0], "tree_param": {"num_deleted": "0", "num_feature": "51", "num_nodes": "63", "size_leaf_vector": "0"}}, {"base_weights": [-0.0012269751075302644, -0.0043617307662013076, 0.08744219041825275, -0.008766261778459893, 0.047635307815104284, 0.12983259300017305, 0.06381475291357616, -0.01053806359353245, 0.1185589442219167, 0.03765086627011462, 0.12276823044115048, 0.009098947667661263, 0.17329670531987748, -0.06495240380799032, 0.10637705136013428, -0.01200344485568857, 0.13209842830177587, -0.02289627009983018, 0.21574191589334596, 0.031063910740633083, 0.13405994265616275, 0.13804286347607475, -0.269280684121908, 0.025804194926993537, -0.6257004481869645, 0.18519565639354518, -0.11227812044815164, -0.02675329873839002, -0.3161849794580534, 0.1890603594980399, 0.050245566117217776, -0.2153466349825322, 1.7574727275100084, 0.12814381145362325, 1.0800723350864814, 0.5574832349464062, -0.49566344793740946, -0.8503352242326347, 1.3240664871821777, 0.2501371619683962, 0.041621724062629296, 0.32233002523464543, 1.5994062624951275, 1.4631648311737901, 0.4435542916642736, 1.8388745714203611, -1.7232937043527907, -0.08049214719747586, 1.117898352344803, -2.493595782340078, -3.1391342785894643, 0.9542630510108931, -0.15976226479492875, 0.31093491406719087, -2.0272899924285652, 0.19755394971004583, -0.6883200859028269, 0.05512900142236741, -2.061022221980346, 1.0162484124055349, 0.19793847270338472, 0.2700554403224483, -1.681959116888668], "categories": [], "categories_nodes": [], "categories_segments": [], "categories_sizes": [], "default_left": [1, 1, 1, 1, 1, 1, 1, 1, 1, 1, 1, 1, 1, 1, 1, 1, 1, 1, 1, 1, 1, 1, 1, 1, 1, 1, 1, 1, 1, 1, 1, 0, 0, 0, 0, 0, 0, 0, 0, 0, 0, 0, 0, 0, 0, 0, 0, 0, 0, 0, 0, 0, 0, 0, 0, 0, 0, 0, 0, 0, 0, 0, 0], "id": 20, "left_children": [1, 3, 5, 7, 9, 11, 13, 15, 17, 19, 21, 23, 25, 27, 29, 31, 33, 35, 37, 39, 41, 43, 45, 47, 49, 51, 53, 55, 57, 59, 61, -1, -1, -1, -1, -1, -1, -1, -1, -1, -1, -1, -1, -1, -1, -1, -1, -1, -1, -1, -1, -1, -1, -1, -1, -1, -1, -1, -1, -1, -1, -1, -1], "loss_changes": [0.0, 0.0, 0.0, 0.0, 0.0, 0.0, 0.0, 0.0, 0.0, 0.0, 0.0, 0.0, 0.0, 0.0, 0.0, 0.0, 0.0, 0.0, 0.0, 0.0, 0.0, 0.0, 0.0, 0.0, 0.0, 0.0, 0.0, 0.0, 0.0, 0.0, 0.0, 0.0, 0.0, 0.0, 0.0, 0.0, 0.0, 0.0, 0.0, 0.0, 0.0, 0.0, 0.0, 0.0, 0.0, 0.0, 0.0, 0.0, 0.0, 0.0, 0.0, 0.0, 0.0, 0.0, 0.0, 0.0, 0.0, 0.0, 0.0, 0.0, 0.0, 0.0, 0.0], "parents": [2147483647, 0, 0, 1, 1, 2, 2, 3, 3, 4, 4, 5, 5, 6, 6, 7, 7, 8, 8, 9, 9, 10, 10, 11, 11, 12, 12, 13, 13, 14, 14, 15, 15, 16, 16, 17, 17, 18, 18, 19, 19, 20, 20, 21, 21, 22, 22, 23, 23, 24, 24, 25, 25, 26, 26, 27, 27, 28, 28, 29, 29, 30, 30], "right_children": [2, 4, 6, 8, 10, 12, 14, 16, 18, 20, 22, 24, 26, 28, 30, 32, 34, 36, 38, 40, 42, 44, 46, 48, 50, 52, 54, 56, 58, 60, 62, -1, -1, -1, -1, -1, -1, -1, -1, -1, -1, -1, -1, -1, -1, -1, -1, -1, -1, -1, -1, -1, -1, -1, -1, -1, -1, -1, -1, -1, -1, -1, -1], "split_conditions": [0.5, 614.5, 98.5, 0.5, 0.5, 86.5, 176.5, 0.5, 15.5, 29.5, 0.5, 0.5, 4.5, 0.5, 184.5, 374.5, 179.0, 33.5, 95.5, 0.5, 0.5, 650.0, 1.5, 0.5, 38.5, 72.5, 0.5, 1687.0, 1.5, 62.5, 0.5, -0.02555705360537569, 0.1717248826438784, 0.008791991038239858, 0.10398484340152568, 0.05172593338751816, -0.05358873490086341, -0.08905591253038594, 0.12838425861109531, 0.02099132608971715, 0.00013978229914046215, 0.02821061241634208, 0.1559182361423903, 0.14229409301025656, 0.040333039059304895, 0.17986506703491367, -0.17635176054240154, -0.012071604826870053, 0.10776744512735784, -0.2533819683411303, -0.3179358179660689, 0.09140391499396686, -0.019998616586615343, 0.027071101299596622, -0.206751389349979, 0.015733004863882117, -0.07285439869740516, 0.001490510035114273, -0.21012461230515708, 0.09760245113343102, 0.015771457163216006, 0.022983153925122367, -0.1722183017959893], "split_indices": [49, 3, 5, 45, 36, 5, 5, 46, 2, 2, 10, 46, 4, 44, 5, 5, 3, 0, 3, 20, 35, 3, 4, 36, 5, 0, 16, 1, 6, 0, 9, 0, 0, 0, 0, 0, 0, 0, 0, 0, 0, 0, 0, 0, 0, 0, 0, 0, 0, 0, 0, 0, 0, 0, 0, 0, 0, 0, 0, 0, 0, 0, 0], "split_type": [0, 0, 0, 0, 0, 0, 0, 0, 0, 0, 0, 0, 0, 0, 0, 0, 0, 0, 0, 0, 0, 0, 0, 0, 0, 0, 0, 0, 0, 0, 0, 0, 0, 0, 0, 0, 0, 0, 0, 0, 0, 0, 0, 0, 0, 0, 0, 0, 0, 0, 0, 0, 0, 0, 0, 0, 0, 0, 0, 0, 0, 0, 0], "sum_hessian": [0.0, 0.0, 0.0, 0.0, 0.0, 0.0, 0.0, 0.0, 0.0, 0.0, 0.0, 0.0, 0.0, 0.0, 0.0, 0.0, 0.0, 0.0, 0.0, 0.0, 0.0, 0.0, 0.0, 0.0, 0.0, 0.0, 0.0, 0.0, 0.0, 0.0, 0.0, 0.0, 0.0, 0.0, 0.0, 0.0, 0.0, 0.0, 0.0, 0.0, 0.0, 0.0, 0.0, 0.0, 0.0, 0.0, 0.0, 0.0, 0.0, 0.0, 0.0, 0.0, 0.0, 0.0, 0.0, 0.0, 0.0, 0.0, 0.0, 0.0, 0.0, 0.0, 0.0], "tree_param": {"num_deleted": "0", "num_feature": "51", "num_nodes": "63", "size_leaf_vector": "0"}}, {"base_weights": [-0.0011182036803145685, -0.01650425277168566, 0.014917690962742175, -0.017950589896722498, 0.05381416992561702, 0.02838341667370197, -0.019169524969585308, -0.01887246865673938, 0.0747966282739541, 0.05812433635101906, -0.47633630039883196, 0.023003266296871, 0.20860383432366172, -0.03186198886904141, 0.015428283386360464, -0.02106376493105935, 0.020549950530798798, -0.017513725190415365, 0.1451718482418397, 0.07993699092726408, -0.049883485502322994, -0.4370076646208827, -2.2471585509283303, 0.15541640100510484, 0.018654213192084174, 0.23561612354814088, 0.03680567485597411, -0.032485879771119365, 0.4253252641738502, 0.02102019251983371, -0.10442496904108116, -0.6415166425228428, 0.23879993533691257, 1.0690943406284816, -0.4908719451998184, 0.48910195339147094, -0.8071654767518985, -0.3078718800905363, 1.04594731277307, 0.3449666240904229, 1.413447202743767, 0.28592059498028555, -1.3270313289674434, -1.7461991909800074, -1.807297557668031, 0.7921568200769238, 2.059519893598274, 0.014576657940868699, 0.3222740233942692, 1.3713193796332344, 0.4905342744049738, -0.24591738269063934, 1.2326588969590837, -0.8481918015610063, 2.5445495689026565, 2.1678282169310212, 1.666564639019508, 0.008870078568642595, 0.34802359069627026, -0.9868026512210543, 1.3312745466804465], "categories": [], "categories_nodes": [], "categories_segments": [], "categories_sizes": [], "default_left": [1, 1, 1, 1, 1, 1, 1, 1, 1, 1, 1, 1, 1, 1, 1, 1, 1, 1, 1, 1, 1, 1, 0, 1, 1, 1, 1, 1, 1, 1, 1, 0, 0, 0, 0, 0, 0, 0, 0, 0, 0, 0, 0, 0, 0, 0, 0, 0, 0, 0, 0, 0, 0, 0, 0, 0, 0, 0, 0, 0, 0], "id": 21, "left_children": [1, 3, 5, 7, 9, 11, 13, 15, 17, 19, 21, 23, 25, 27, 29, 31, 33, 35, 37, 39, 41, 43, -1, 45, 47, 49, 51, 53, 55, 57, 59, -1, -1, -1, -1, -1, -1, -1, -1, -1, -1, -1, -1, -1, -1, -1, -1, -1, -1, -1, -1, -1, -1, -1, -1, -1, -1, -1, -1, -1, -1], "loss_changes": [0.0, 0.0, 0.0, 0.0, 0.0, 0.0, 0.0, 0.0, 0.0, 0.0, 0.0, 0.0, 0.0, 0.0, 0.0, 0.0, 0.0, 0.0, 0.0, 0.0, 0.0, 0.0, 0.0, 0.0, 0.0, 0.0, 0.0, 0.0, 0.0, 0.0, 0.0, 0.0, 0.0, 0.0, 0.0, 0.0, 0.0, 0.0, 0.0, 0.0, 0.0, 0.0, 0.0, 0.0, 0.0, 0.0, 0.0, 0.0, 0.0, 0.0, 0.0, 0.0, 0.0, 0.0, 0.0, 0.0, 0.0, 0.0, 0.0, 0.0, 0.0], "parents": [2147483647, 0, 0, 1, 1, 2, 2, 3, 3, 4, 4, 5, 5, 6, 6, 7, 7, 8, 8, 9, 9, 10, 10, 11, 11, 12, 12, 13, 13, 14, 14, 15, 15, 16, 16, 17, 17, 18, 18, 19, 19, 20, 20, 21, 21, 23, 23, 24, 24, 25, 25, 26, 26, 27, 27, 28, 28, 29, 29, 30, 30], "right_children": [2, 4, 6, 8, 10, 12, 14, 16, 18, 20, 22, 24, 26, 28, 30, 32, 34, 36, 38, 40, 42, 44, -1, 46, 48, 50, 52, 54, 56, 58, 60, -1, -1, -1, -1, -1, -1, -1, -1, -1, -1, -1, -1, -1, -1, -1, -1, -1, -1, -1, -1, -1, -1, -1, -1, -1, -1, -1, -1, -1, -1], "split_conditions": [184.5, 0.5, 0.5, 0.5, 183.5, 0.5, 459.5, 0.5, 33.5, 0.5, 0.5, 25.5, 57.5, 0.5, 6390.5, 0.5, 0.5, 11.5, 94.5, 0.5, 0.5, 0.5, -0.2287382451999555, 1798.5, 913.5, 0.5, 2936.5, 0.5, 39.0, 0.5, 1218.0, -0.06817405435940675, 0.019857603426568792, 0.1028870439557257, -0.053109584627104314, 0.044887805232024625, -0.08473893778231233, -0.0348095781161761, 0.10057234117018454, 0.030474272301919823, 0.13732233016725423, 0.024569669390906088, -0.1367255230038668, -0.17864230920512322, -0.18475214587392558, 0.07519329190056992, 0.20192959925270493, -0.002564724313035598, 0.02820501223230445, 0.13310954785620097, 0.04503103733337492, -0.028614128376186404, 0.11924349958878591, -0.08884157026322309, 0.2504325667831432, 0.21276043158597968, 0.16263407379482833, -0.003135382250258208, 0.030779968962504557, -0.10270265522922789, 0.1291050645609222], "split_indices": [3, 49, 34, 42, 3, 41, 3, 35, 0, 7, 21, 0, 0, 45, 1, 38, 29, 2, 3, 46, 21, 33, 0, 1, 1, 49, 1, 38, 0, 41, 3, 0, 0, 0, 0, 0, 0, 0, 0, 0, 0, 0, 0, 0, 0, 0, 0, 0, 0, 0, 0, 0, 0, 0, 0, 0, 0, 0, 0, 0, 0], "split_type": [0, 0, 0, 0, 0, 0, 0, 0, 0, 0, 0, 0, 0, 0, 0, 0, 0, 0, 0, 0, 0, 0, 0, 0, 0, 0, 0, 0, 0, 0, 0, 0, 0, 0, 0, 0, 0, 0, 0, 0, 0, 0, 0, 0, 0, 0, 0, 0, 0, 0, 0, 0, 0, 0, 0, 0, 0, 0, 0, 0, 0], "sum_hessian": [0.0, 0.0, 0.0, 0.0, 0.0, 0.0, 0.0, 0.0, 0.0, 0.0, 0.0, 0.0, 0.0, 0.0, 0.0, 0.0, 0.0, 0.0, 0.0, 0.0, 0.0, 0.0, 0.0, 